tree
version=v4
num_class=1
num_tree_per_iteration=1
label_index=0
max_feature_idx=28
objective=regression_l1
feature_names=Column_0 Column_1 Column_2 Column_3 Column_4 Column_5 Column_6 Column_7 Column_8 Column_9 Column_10 Column_11 Column_12 Column_13 Column_14 Column_15 Column_16 Column_17 Column_18 Column_19 Column_20 Column_21 Column_22 Column_23 Column_24 Column_25 Column_26 Column_27 Column_28
feature_infos=[-1.9366274793213347:2.0667643467807486] [-1.9446170101907128:2.0729162317700185] [-3.3234058356328071:3.9687051170403507] [-1.9499596225303824:2.1109086593987967] [-1.9856427691601333:2.0932616234409251] [-1.7043102400736601:2.3925322598142169] [-1.6988175117072852:2.3931735940063761] [-3.6177259542048898:3.4850624943130235] [-1.7222555077178263:2.4198446603837649] [-1.7615306856060613:2.3800459257648736] [-2.1470756522509182:2.422071376090623] [-2.056659249190242:2.3196695493224553] [-3.358753375620593:2.8642474467874317] [-1.8162681959583806:2.1010932848440333] [-2.6115181308040261:2.1016109952179676] [-1.2504353458140554:1.7465602285396136] [-1.2183052008213089:1.7483446680079635] [-2.5622331404963745:1.044314486740463] [-1.0559304671081118:1.8589214944851498] [-1.2956482203875352:1.7605249598728971] [-1.3727057939526055:1.6854875017362898] [-1.3637628585183625:1.6814118652252243] [-3.9951846090782173:2.7272684709938444] [-1.1070779551672147:1.7859003144735124] [-1.4383850809749714:1.8105469945653161] [-1.3438846361886081:1.3393974696193425] [-1.9149162454280673:1.7608046809080646] [-1.0750367159789984:2.1145361247128656] [-1.9989803986849224:2.3025605423749331]
tree_sizes=583 666 1594 669 840 1770 1096 1852 1084 1255 1167 1091 1266 2188 1425 2034 1181 1358 1528 1602 1684 1611 1689 1696 1680 1766 1776 2034 1876 1963 2031 1959 2128 1873 1707 2129 2133 2473 2300 2221 2479 2734 2312 2116 2136 2556 2274 2479 2382 2627 2467 2430 2481 2454 2293 2300 2539 2466 2484 2482 2449 2459 2483 2472 2563 2731 2655 2562 2727 2644 2659 2657 2652 2500 2746 2731 2809 2557 2747 2570 2567 2746 2800 2730 2831 2561 2835 2661 2827 2731 2649 2624 2639 2733 2636 2754 2654 2849 2750 2563 2741 2731 2744 2676 2554 2756 2673 2660 2493 2826 2739 2806 2746 2652 2751 2661 2841 2578 2571 2681 2647 2752 2824 2834 2583 2661 2652 2745 2843 2661 2740 2752 2643 2824 2817 2654 2763 2815 2839 2653 2815 2821 2811 2827 2745 2835 2815 2758 2572 2801 2740 2733 2733 2828 2583 2841 2827 2809 2753 2663 2839 2739 2810 2589 2497 2672 2566 2833 2727 2642 2643 2635 2585 2626 2624 2809 2752 2643 2746 2743 2636 2753 2647 2648 2730 2579 2576 2658 2825 2660 2755 2647 2829 2674 2743 2572 2740 2657 2819 2567 2669 2660 2764 2553 2745 2821 2672 2826 2666 2736 2578 2769 2656 2674 2677 2661 2840 2604 2588 2744 2654 2812 2825 2832 2591 2847 2742 2629 2849 2754 2653 2745 2820 2731 2663 2752 2727 2561 2731 2717 2854 2830 2743 2753 2646 2573 2586 2822 2570 2640 2847 2837 2577 2648 2839 2751 2821 2649 2814 2731 2837 2833 2660 2850 2837 2841 2822 2846 2742 2745 2755 2848 2493 2837 2656 2808 2822 2739 2745 2754 2422 2765 2654 2574 2735 2587 2668 2657 2651 2755 2843 2750 2822 2821 2745 2627 2568 2653 2563 2660 2823 2642 2744 2662 2576 2754 2477 2573 2556 2745 2550 2662 2739 2639 2667 2761 2742 2817 2761 2748 2819 2831 2553 2610 2815 2650 2739 2718 2721 2724 2497 2494 2638 2537 2642 2823 2643 2840 2742 2819 2722 2642 2739 2825 2718 2651 2576 2739 2665 2807 2584 2487 2621 2722 2647 2733 2812 2722 2715 2658 2826 2715 2773 2742 2754 2833 2739 2812 2650 2723 2757 2737 2825 2842 2822 2745 2589 2493 2583 2623 2421 2837 2842 2632 2685 2668 2819 2757 2775 2570 2675 2578 2849 2481 2631 2569 2664 2733 2501 2664 2664 2769 2846 2648 2649 2651 2662 2854 2480 2670 2756 2656 2682 2810 2749 2684 2597 2677 2739 2728 2667 2638 2736 2802 2762 2571 2755 2581 2747 2848 2583 2824 2738 2830 2730 2738 2581 2741 2665 2478 2487 2640 2656 2641 2579 2620 2658 2827 2811 2821 2820 2740 2821 2653 2662 2752 2753 2669 2741 2757 2722 2725 2750 2855 2666 2763 2740 2834 2768 2710 2839 2653 2662 2649 2824 2733 2644 2733 2497 2761 2674 2749 2676 2502 2832 2752 2582 2667 2741 2674 2658 2665 2677 2654

Tree=0
num_leaves=5
num_cat=0
split_feature=10 10 15 10
split_gain=665.339 11.706 47.4209 9.16166
threshold=-0.069997610202615176 0.3118713892729234 -0.75760083929018329 -0.15701696675270205
decision_type=2 2 2 2
left_child=3 2 -2 -1
right_child=1 -3 -4 -5
leaf_value=-0.058519573695957658 -0.037211391516029833 -0.0056054787710309029 -0.027954184450209141 -0.036022176500409842
leaf_weight=348 23 301 71 26
leaf_count=348 23 301 71 26
internal_value=-0.0352827 0.00997222 -0.00543042 -0.0830786
internal_weight=769 395 94 374
internal_count=769 395 94 374
is_linear=0
shrinkage=1


Tree=1
num_leaves=6
num_cat=0
split_feature=10 10 10 16 10
split_gain=646.158 18.5353 10.6627 25.4456 1.49486
threshold=-0.069997610202615176 -0.19944739473670375 0.1924486446290416 -0.59469008411710345 0.32440953605985906
decision_type=2 2 2 2 2
left_child=1 -1 3 -2 -4
right_child=2 -3 4 -5 -6
leaf_value=-0.02269374421797693 -0.003412625780329108 -0.00076429641339927914 0.010311080561950804 0.0042320324573665857 0.028322372818365693
leaf_weight=336 20 38 38 37 300
leaf_count=336 20 38 38 37 300
internal_value=0.000845254 -0.0462567 0.045443 0.0254386 0.0488166
internal_weight=769 374 395 57 338
internal_count=769 374 395 57 338
is_linear=0
shrinkage=0.05


Tree=2
num_leaves=17
num_cat=0
split_feature=13 13 12 13 27 13 27 13 14 0 14 27 11 26 5 1
split_gain=410.985 66.7588 30.8396 10.6632 9.91777 5.8905 6.26485 5.21387 4.81667 6.27411 2.05396 1.38836 3.11321 0.559598 0.473469 0.182301
threshold=0.30304915594921539 -0.34109402020977869 -0.26306695744088709 0.45548330063982428 0.093885383805391839 -0.8022288756381063 -0.45169944420769009 0.015124321089829971 0.1609715252219035 -0.1384326248446672 -0.53920095796739642 1.5736456802756178 1.1325864503446328 1.3349987162707067 -0.10714306249643026 -1.2889052804894494
decision_type=2 2 2 2 2 2 2 2 2 2 2 2 2 2 2 2
left_child=1 5 7 -2 8 13 10 -3 9 -4 -7 15 -13 -1 -8 -5
right_child=3 2 4 11 -6 6 14 -9 -10 -11 -12 12 -14 -15 -16 -17
leaf_value=-0.029513477156404407 0.005933243164326996 0.0031757150194607676 0.00045096578658558421 0.02923752594506368 -0.015694046387914568 -0.00031581760733388373 -0.022817467520479112 0.014236126129981132 0.0015761877610348165 -0.0050532843866385527 -0.01383963711047545 0.013862068986054511 0.031464903836604212 -0.031885181734804063 -0.017062364140991122 0.02834082472836599
leaf_weight=174 35 36 23 20 27 22 29 21 20 37 21 20 33 25 20 206
leaf_count=174 35 36 23 20 27 22 29 21 20 37 21 20 33 25 20 206
internal_value=0.000585176 -0.0297802 -0.00426829 0.044586 -0.0200935 -0.0441581 -0.0336957 0.0254386 -0.01125 -0.0183333 -0.0197674 0.0478495 0.040566 -0.048995 -0.0459184 0.0495575
internal_weight=769 455 164 314 107 291 92 57 80 60 43 279 53 199 49 226
internal_count=769 455 164 314 107 291 92 57 80 60 43 279 53 199 49 226
is_linear=0
shrinkage=0.05


Tree=3
num_leaves=6
num_cat=0
split_feature=10 10 27 10 15
split_gain=620.638 24.7087 20.1746 13.5342 52.56
threshold=-0.069997610202615176 -0.24219727110209285 -0.39104306695151531 0.33049886919316646 -0.75760083929018329
decision_type=2 2 2 2 2
left_child=1 -1 -3 4 -2
right_child=3 2 -4 -5 -6
leaf_value=-0.021310314959636891 -0.0024352256957208742 0.00054837617266457507 -0.0098514074706705299 0.025767086367704906 0.0064701552290702237
leaf_weight=328 25 24 22 297 73
leaf_count=328 25 24 22 297 73
internal_value=0.000975293 -0.0451872 -0.0108696 0.0446835 0.0285714
internal_weight=769 374 46 395 98
internal_count=769 374 46 395 98
is_linear=0
shrinkage=0.05


Tree=4
num_leaves=8
num_cat=0
split_feature=10 10 27 10 16 27 9
split_gain=585.903 44.3702 30.5079 9.26375 42.7497 5.13778 0.187421
threshold=0.011966374620756141 -0.27180043129575132 -0.23124414533572482 0.38516174399406722 -0.75395783054032373 -0.67780767768778716 -1.3442997543607789
decision_type=2 2 2 2 2 2 2
left_child=1 6 5 4 -2 -3 -1
right_child=3 2 -4 -5 -6 -7 -8
leaf_value=-0.016654894754324343 -0.0016352717488596685 0.00083279626289731808 -0.0092343644310708631 0.024817319661233343 0.0070063964122568725 -2.7542420985409746e-05 -0.020555240979935042
leaf_weight=20 21 25 25 287 73 20 298
leaf_count=20 21 25 25 287 73 20 298
internal_value=0.00149545 -0.0417526 -0.00571429 0.0455381 0.0319149 0.0188889 -0.0496855
internal_weight=769 388 70 381 94 45 318
internal_count=769 388 70 381 94 45 318
is_linear=0
shrinkage=0.05


Tree=5
num_leaves=19
num_cat=0
split_feature=13 13 13 18 28 13 17 12 0 28 24 23 6 13 17 22 16 0
split_gain=362.592 33.1962 32.6654 16.4932 14.181 8.50348 9.77549 7.1651 6.61567 6.13636 5.65296 3.86237 5.40254 3.45444 8.40078 1.43004 0.175904 0.135484
threshold=0.035566143626570519 -0.34109402020977869 0.45548330063982428 -0.87513098945885537 0.43475710221361313 -1.1000685930334633 0.46540512917247306 -0.69500794830671697 0.22771802529451521 -0.3040130959181897 -0.61434000399876387 0.81522510365126488 0.75645423988244254 0.94802499929658246 0.25064948002644832 -0.38503204366724786 -1.2003159926235705 0.69751795568931818
decision_type=2 2 2 2 2 2 2 2 2 2 2 2 2 2 2 2 2 2
left_child=1 5 4 -3 8 -1 17 -5 -2 -9 -6 12 -8 14 -4 -16 -15 -7
right_child=2 3 13 7 10 6 11 9 -10 -11 -12 -13 -14 16 15 -17 -18 -19
leaf_value=-0.032383068106052001 0.0005351725681000969 -0.012542685753303726 0.0041040707154679701 0.0063427768448326392 -0.0055395909999855211 -0.019884412190791685 -0.015565120556085808 -0.0051306894479573239 0.01201180652598996 0.0009562928602388711 0.0016945344378813754 -0.0040736397308376608 -0.0070905569707122628 0.023633521400253814 0.013750031195442717 0.013046186022322218 0.032354524560134448 -0.019332012138244231
leaf_weight=135 35 20 28 21 20 42 38 20 26 24 21 38 20 20 30 61 146 20
leaf_count=135 35 20 28 21 20 42 38 20 26 24 21 38 20 20 30 61 146 20
internal_value=0.00202614 -0.0328042 0.0360465 -0.00529412 0.0117647 -0.040785 -0.0329114 0.00692308 0.0270492 -0.00454545 -0.0109756 -0.0229167 -0.0310345 0.0447368 0.0382353 0.0456044 0.0493976 -0.0483871
internal_weight=765 378 387 85 102 293 158 65 61 44 41 96 58 285 119 91 166 62
internal_count=765 378 387 85 102 293 158 65 61 44 41 96 58 285 119 91 166 62
is_linear=0
shrinkage=0.05


Tree=6
num_leaves=11
num_cat=0
split_feature=10 10 16 10 10 19 10 16 10 0
split_gain=542.523 44.8607 79.2086 8.50095 5.39152 1.74545 0.614293 1.06531 0.186254 0.144444
threshold=-0.25053891750670126 0.33049886919316646 -0.75014938829866862 -0.085401087661083855 -0.33944665879233143 -1.1988278414606472 0.52755363598978267 -0.56305253112484632 -0.40164528047365694 -0.8271998930735216
decision_type=2 2 2 2 2 2 2 2 2 2
left_child=4 2 5 -4 8 -2 7 -3 -1 -5
right_child=1 6 3 9 -6 -7 -8 -9 -10 -11
leaf_value=-0.021566791650059702 -0.0032076619575929508 0.0089138849893607066 0.00028384179549895627 0.0039040010127734726 -0.0014676437384713644 -0.0060885421513844767 0.024639895842465561 0.0088393403189806121 -0.003290303285714764 0.0050142392710600843
leaf_weight=271 20 20 35 20 24 24 250 29 20 52
leaf_count=271 20 20 35 20 24 24 250 29 20 52
internal_value=0.00254902 0.0377778 0.0155629 0.038785 -0.0477778 -0.0409091 0.0489967 0.0438776 -0.0496564 0.0486111
internal_weight=765 450 151 107 315 44 299 49 291 72
internal_count=765 450 151 107 315 44 299 49 291 72
is_linear=0
shrinkage=0.05


Tree=7
num_leaves=20
num_cat=0
split_feature=13 13 13 12 27 13 27 0 27 28 23 12 18 13 3 5 2 2 0
split_gain=332.838 36.4732 32.5224 20.2669 18.426 10.6232 12.53 9.68772 9.47211 9.82313 7.09473 5.56522 3.95792 9.23684 3.24422 1.39947 0.557576 0.17619 0.129825
threshold=0.035566143626570519 -0.37456212949364792 0.45548330063982428 -0.85418041037334214 1.5162012496765929 -1.1000685930334633 -0.42859813555818971 0.13869814997714716 0.066057663621937421 -0.43623826701826202 0.81522510365126488 0.29598560826894837 -0.91674640137713981 1.0871095653484004 -0.099972248164371225 -1.4222824343236831 0.52449251575305011 -0.93055958728075872 -0.028402681624731713
decision_type=2 2 2 2 2 2 2 2 2 2 2 2 2 2 2 2 2 2 2
left_child=1 5 4 -3 7 -1 10 11 9 -5 14 -2 13 -4 -7 -14 -8 -17 -15
right_child=2 3 12 8 -6 6 16 -9 -10 -11 -12 -13 15 18 -16 17 -18 -19 -20
leaf_value=-0.029685575118246418 0.0086778352046479601 0.0046756579378822447 0.0063440175818335583 -0.004803490464972783 -0.005124401217843827 -0.005299478196531926 -0.016664078866089622 0.010468405784192062 -0.011842009470147919 0.00099957285132934838 0.00029245076335346901 -0.0010156196969965537 0.024655054306430776 0.030036860899819096 -0.009918642161372046 0.024693719200609286 -0.021150982666211994 0.02161271422710832 0.015297932378767091
leaf_weight=135 23 23 39 21 21 25 46 35 21 28 26 23 21 37 33 20 20 148 20
leaf_count=135 23 23 39 21 21 25 46 35 21 28 26 23 21 37 33 20 20 148 20
internal_value=0.0024183 -0.0309524 0.0350129 -0.00376344 0.0107843 -0.0398246 -0.0306667 0.0216049 -0.0171429 -0.00510204 -0.0178571 0.00652174 0.0436842 0.0354167 -0.0275862 0.0478836 -0.0469697 0.0494048 0.0482456
internal_weight=765 378 387 93 102 285 150 81 70 49 84 46 285 96 58 189 66 168 57
internal_count=765 378 387 93 102 285 150 81 70 49 84 46 285 96 58 189 66 168 57
is_linear=0
shrinkage=0.05


Tree=8
num_leaves=11
num_cat=0
split_feature=10 10 16 13 10 27 10 27 10 15
split_gain=512.347 45.7654 29.9935 20.5719 18.25 54.7556 3.75207 3.1941 1.01672 1.96923
threshold=-0.033572407423656886 -0.31940592305822896 -0.67355723796322486 -0.13866576629202246 0.33049886919316646 1.474853155744025 -0.44672389510285626 -0.27155361834069575 0.54168093738286061 -0.57386140068176428
decision_type=2 2 2 2 2 2 2 2 2 2
left_child=1 6 -3 -4 5 7 -1 -2 9 -6
right_child=4 2 3 -5 8 -7 -8 -9 -10 -11
leaf_value=-0.019944892701153436 0.0054231107234557364 -0.0082040383237769448 0.00095715775554683835 -0.0011611435956640126 0.0069356105671250865 -0.0024958008962648803 -0.0029742969738391343 0.0010044742225820153 0.02249951434323167 0.0082594902180274845
leaf_weight=264 52 24 28 22 20 20 34 22 247 32
leaf_count=264 52 24 28 22 20 20 34 22 247 32
internal_value=0.00281046 -0.0392473 -0.00405405 0.018 0.0426209 0.0234043 -0.0479866 0.0432432 0.0486622 0.0423077
internal_weight=765 372 74 50 393 94 298 74 299 52
internal_count=765 372 74 50 393 94 298 74 299 52
is_linear=0
shrinkage=0.05


Tree=9
num_leaves=13
num_cat=0
split_feature=10 10 17 10 13 10 13 10 15 27 5 3
split_gain=489.149 43.0486 69.4389 11.4128 11.2889 8.3363 13.473 3.07023 12.0462 2.48918 0.184615 0.133333
threshold=-0.25053891750670126 0.33049886919316646 0.25064948002644832 -0.4587335367828636 -0.37456212949364792 0.011966374620756141 -0.34109402020977869 0.65255621381691087 -0.72539114623135814 1.6358920168813078 1.6095557205563911 0.56977443316931564
decision_type=2 2 2 2 2 2 2 2 2 2 2 2
left_child=3 2 9 10 -5 6 -4 8 -3 -2 -1 -7
right_child=1 7 5 4 -6 11 -8 -9 -10 -11 -12 -13
leaf_value=-0.019066237920742607 -0.0015157187808319443 0.00026111886949613391 0.0014685525723864938 0.00016657051588860191 -0.0026931467392782155 0.0046338709574954579 -1.6173268932434365e-05 0.024143797244424885 0.0088780133125225934 -0.0053267989743515367 -0.010171860122900582 0.0046680150338766534
leaf_weight=240 21 20 21 23 32 40 26 221 58 23 20 20
leaf_count=240 21 20 21 23 32 40 26 221 58 23 20 20
internal_value=0.00254902 0.036 0.0142384 -0.0452381 -0.0245455 0.0359813 0.0202128 0.04699 0.0384615 -0.0386364 -0.0496154 0.0483333
internal_weight=765 450 151 315 55 107 47 299 78 44 260 60
internal_count=765 450 151 315 55 107 47 299 78 44 260 60
is_linear=0
shrinkage=0.05


Tree=10
num_leaves=12
num_cat=0
split_feature=10 10 17 17 10 13 17 10 5 3 1
split_gain=496.258 50.9847 28.0571 18.3782 48.6561 17.8344 6.4 1.2284 1.74545 0.185455 0.145946
threshold=0.011966374620756141 -0.34454084956286107 0.32360407584872491 -0.96611465491820425 0.59580074993540277 -0.35601701250715884 0.54879980666024319 -0.52759083757343761 0.10924465096381743 1.553117303637902 -0.96517539789895235
decision_type=2 2 2 2 2 2 2 2 2 2 2
left_child=1 7 -3 4 -2 -4 -7 -1 -9 -5 -6
right_child=3 2 5 9 10 6 -8 8 -10 -11 -12
leaf_value=-0.019685334700852937 -0.0010084176483612778 -0.0080570559106035843 0.00087396718138805162 0.012247122370759709 0.022649843700452893 0.00018151276072736402 -0.00065787787513908529 -0.003235782504524492 -0.0022220385882576951 0.0061835389735898265 0.010003051366563268
leaf_weight=239 36 26 27 255 20 20 20 24 20 20 54
leaf_count=239 36 26 27 255 20 20 20 24 20 20 54
internal_value=0.00282523 -0.0380319 -0.00591398 0.0427273 0.0254545 0.011194 -0.01 -0.0485866 -0.0409091 0.0496364 0.0486486
internal_weight=761 376 93 385 110 67 40 283 44 275 74
internal_count=761 376 93 385 110 67 40 283 44 275 74
is_linear=0
shrinkage=0.05


Tree=11
num_leaves=11
num_cat=0
split_feature=10 10 27 16 10 11 10 10 10 5
split_gain=472.492 48.2912 52.5219 11.3852 30.885 10.1691 9.82432 2.89266 1.7743 2.87234
threshold=-0.25053891750670126 0.1924486446290416 0.093885383805391839 -1.1638266197507987 0.74832441236661529 0.31728958195403917 -0.34454084956286107 -0.085401087661083855 -0.53455683411288157 0.17183288797163079
decision_type=2 2 2 2 2 2 2 2 2 2
left_child=6 2 5 4 -3 7 8 -2 -1 -10
right_child=1 3 -4 -5 -6 -7 -8 -9 9 -11
leaf_value=-0.018861742578483033 0.00067458202657108145 -0.00035836224915065663 -0.005241049679994135 0.013808681164777778 0.01801829110546432 9.6671503431486341e-05 -0.0012093199991010822 0.0022419894243163388 -0.0031556276509742925 -0.0019838439471782476
leaf_weight=236 27 31 35 243 61 22 27 32 27 20
leaf_count=236 27 31 35 243 61 22 27 32 27 20
internal_value=0.00203679 0.0347007 0.00689655 0.0443284 0.0293478 0.0290123 -0.0454839 0.0398305 -0.0482332 -0.0393617
internal_weight=761 451 116 335 92 81 310 59 283 47
internal_count=761 451 116 335 92 81 310 59 283 47
is_linear=0
shrinkage=0.05


Tree=12
num_leaves=13
num_cat=0
split_feature=10 10 27 27 10 13 14 10 0 10 5 5
split_gain=461.692 46.8154 36.3512 25.0974 54.5053 11.3545 6.00302 2.96208 1.71163 1.63577 2.87234 0.183051
threshold=0.011966374620756141 -0.34454084956286107 -0.37756844742828716 0.093885383805391839 0.74832441236661529 -0.34109402020977869 0.42321019423591738 0.085489239239745204 -0.033541242198660032 -0.53455683411288157 0.17183288797163079 1.5659258623220935
decision_type=2 2 2 2 2 2 2 2 2 2 2 2
left_child=1 9 5 7 6 -3 -5 -2 -4 11 -11 -1
right_child=3 2 8 4 -6 -7 -8 -9 -10 10 -12 -13
leaf_value=-0.017884603276696883 0.0013730909208831141 0.00085730184615368942 -0.0056151767806263356 7.9999336029309281e-05 0.017671097617034819 0.00011443525678495205 -0.00090863265640375864 0.011957182650365619 -0.0050825886866480785 -0.0029978462684255775 -0.0018846517498193355 -0.020589383838027005
leaf_weight=216 20 21 23 22 67 29 27 249 20 27 20 20
leaf_count=216 20 21 23 22 67 29 27 249 20 27 20 20
internal_value=0.00164258 -0.037766 -0.00698925 0.0401299 0.0206897 0.022 -0.0193878 0.048513 -0.0406977 -0.0478799 -0.0393617 -0.0495763
internal_weight=761 376 93 385 116 50 49 269 43 283 47 236
internal_count=761 376 93 385 116 50 49 269 43 283 47 236
is_linear=0
shrinkage=0.05


Tree=13
num_leaves=24
num_cat=0
split_feature=14 11 14 28 17 19 14 20 26 22 24 17 28 22 26 26 14 6 6 11 17 22 0
split_gain=261.807 37.9404 28.1469 26.2165 26.1309 9.98769 12.2216 10.6379 7.81981 7.26578 6.60706 4.48453 8.91296 6.54545 2.80731 2.54545 2.40442 2.8 1.99245 1.95141 3.20214 0.877076 0.106977
threshold=0.020470532356486073 -0.91736098982913672 0.45454081228767124 0.42093171508669452 0.36473253423766311 -0.73350380126208659 1.0963464113573547 -0.85604225570320647 -1.0872287805583813 0.55449316117862535 -0.61434000399876387 0.6548336679704615 -0.86420929823433046 0.45083375296167966 -0.18366248851548519 -0.16337621231022922 0.64737634895344975 -0.24077240803761055 -0.0089433773071436826 -1.2229216180147946 0.5792998826601391 -0.23635062301734941 -0.17367358610385633
decision_type=2 2 2 2 2 2 2 2 2 2 2 2 2 2 2 2 2 2 2 2 2 2 2
left_child=1 19 3 9 14 6 7 -4 -6 21 -5 12 -10 15 -3 -14 17 -7 -8 -1 -21 -2 -16
right_child=2 4 5 10 8 16 18 -9 11 -11 -12 -13 13 -15 22 -17 -18 -19 -20 20 -22 -23 -24
leaf_value=-0.022223341918702538 0.0081013511782273648 -0.0057464278017584072 0.0076274298641899113 -0.0042473920292897338 -0.0018683594202217914 0.0038995980310683551 0.022328804430188774 -0.00070655744931689144 0.0018768229917694073 0.00025772896510959514 0.0013366717806439787 -0.0013469028924388395 0.00071485925923749332 -0.002766319683328273 -0.013245225139205201 -0.00017275067034493163 0.021687063068889345 0.004388691786655379 0.016851001696026581 -0.01513685240735349 -0.0082786695538099083 0.0055526129411380245 -0.013282904294855919
leaf_weight=100 22 20 21 26 26 24 33 20 22 21 23 28 22 22 23 28 136 21 20 39 23 21 20
leaf_count=100 22 20 21 26 26 24 33 20 22 21 23 28 22 22 23 28 136 21 20 39 23 21 20
internal_value=0.00243101 -0.0274799 0.0311856 0.010177 -0.0135071 0.0398182 0.0265957 0.00609756 -0.00202703 0.03125 -0.0173469 0.00327869 0.00851064 0 -0.0404762 0.01 0.0466851 0.0366667 0.0424528 -0.045679 -0.0387097 0.0430233 -0.0476744
internal_weight=761 373 388 113 211 275 94 41 148 64 49 122 94 72 63 50 181 45 53 162 62 43 43
internal_count=761 373 388 113 211 275 94 41 148 64 49 122 94 72 63 50 181 45 53 162 62 43 43
is_linear=0
shrinkage=0.05


Tree=14
num_leaves=15
num_cat=0
split_feature=10 27 10 10 13 10 13 27 10 10 10 7 5 5
split_gain=450.822 46.7665 78.895 11.1871 17.0457 10.7743 13.3456 12.1 8.23613 0.9 0.486275 0.419048 0.181982 0.140299
threshold=-0.24493239623083254 0.093885383805391839 0.74832441236661529 0.085489239239745204 0.14133281229979924 -0.58524722676346619 -0.32154898516724689 -0.58459716871420386 0.29935790875341134 0.043198721559490394 -0.35029941209366866 -0.084041657844119363 1.5659258623220935 -0.055249256250428841
decision_type=2 2 2 2 2 2 2 2 2 2 2 2 2 2
left_child=5 3 8 4 11 12 7 -7 9 -3 -8 -2 -1 -4
right_child=1 2 13 -5 -6 6 10 -9 -10 -11 -12 -13 -14 -15
leaf_value=-0.017711670458845911 0.0014968145612386111 -0.0061754234994789176 0.016406171242973583 0.010793815718919658 -0.00021991143628784162 0.00065910700909221215 -0.0029385387646062274 -0.0018213829548442779 -8.2579783344863446e-05 -0.0015660177483814701 -0.0011947924855158646 0.00083099693293956401 -0.018925904062424878 0.015882292691167001
leaf_weight=202 20 20 47 249 22 20 31 20 28 20 20 22 20 20
leaf_count=202 20 20 47 249 22 20 31 20 28 20 20 22 20 20
internal_value=0.00243101 0.0345982 0.01 0.0452077 0.0265625 -0.0436102 -0.0291209 -0.0075 -0.0279412 -0.0425 -0.0460784 0.0452381 -0.0495495 0.0485075
internal_weight=761 448 135 313 64 313 91 40 68 40 51 42 222 67
internal_count=761 448 135 313 64 313 91 40 68 40 51 42 222 67
is_linear=0
shrinkage=0.05


Tree=15
num_leaves=22
num_cat=0
split_feature=13 14 12 27 27 13 23 12 21 13 27 0 22 13 17 27 24 12 12 13 2
split_gain=235.584 53.5833 29.4372 22.864 18.0266 19.7606 7.22289 7.08545 5.90567 5.05054 6.84444 5.51193 4.82075 4.31239 5.2426 3.87389 2.89403 2.32258 2.01481 0.168992 0.154023
threshold=0.30304915594921539 -0.78309464053366085 -0.76860740024311236 -0.21450496179557879 0.12763598852970157 1.4674384868235577 -0.93866742519776725 -0.085588492152959092 0.94904655284906092 -1.330024187479703 -0.027852885007691352 -0.39691037105122312 -0.12680197377235669 0.75038469381040651 0.65109351169743668 1.474853155744025 0.65027173419125017 0.148414540388243 0.42791477176260678 0.87008968211237414 0.94036959621172544
decision_type=2 2 2 2 2 2 2 2 2 2 2 2 2 2 2 2 2 2 2 2 2
left_child=1 9 16 6 13 7 -4 -6 12 20 11 -11 -8 14 18 -5 -3 -13 -2 -15 -1
right_child=4 2 3 15 5 -7 8 -9 -10 10 -12 17 -14 19 -16 -17 -18 -19 -20 -21 -22
leaf_value=-0.026778865378993738 0.0097919794987955857 0.0005420937479712018 0.0011339245711998996 -0.0053470198188905983 0.001822598652227047 0.022659874042759015 0.00013536999957988947 -0.00074957226369865265 0.00041510968533646362 -0.0021884176629357434 -0.017330695241174872 -0.0074738677815517247 -0.0017012431401627476 0.0067100258214007674 0.0037051398981878059 -0.011016211612314709 0.0041085946934522723 -0.015436387309897038 0.0030526954065129477 0.023829843186824615 -0.027705918024831216
leaf_weight=67 34 23 21 30 28 32 26 39 39 28 42 31 33 20 22 38 21 31 20 109 20
leaf_count=67 34 23 21 30 28 32 26 39 39 28 42 31 33 20 22 38 21 31 20 109 20
internal_value=0.00119363 -0.0217778 -0.00497835 -0.0136364 0.0351974 0.0176768 -0.000420168 0.00223881 -0.00612245 -0.0394977 -0.0333333 -0.0255556 -0.0161017 0.0436585 0.0342105 -0.0367647 0.0318182 -0.033871 0.0425926 0.0492248 -0.0488506
internal_weight=754 450 231 187 304 99 119 67 98 219 132 90 59 205 76 68 44 62 54 129 87
internal_count=754 450 231 187 304 99 119 67 98 219 132 90 59 205 76 68 44 62 54 129 87
is_linear=0
shrinkage=0.05


Tree=16
num_leaves=12
num_cat=0
split_feature=10 10 17 10 11 11 28 17 10 15 10
split_gain=419.054 35.3957 42.5299 20.1911 23.1949 16.2357 8.90843 7.62154 16.4229 2.97329 3.42857
threshold=-0.22996765484047191 0.33049886919316646 0.31188964914569328 -0.68982290024354886 -0.75562547299969951 0.50557395352378831 -0.71952002126218684 0.33469923186233896 0.89972272689225663 0.61531615918006277 0.049699293938204138
decision_type=2 2 2 2 2 2 2 2 2 2 2
left_child=3 2 -2 -1 -5 9 -6 8 -3 -4 -11
right_child=1 7 5 4 6 -7 -8 -9 -10 10 -12
leaf_value=-0.017907998941400962 -0.0022324767480190653 0.0002391566118110422 0.0020344983908880073 0.00035334329733843138 -0.00040247775666963362 -0.00022226331328820925 -0.0037087751943930772 0.013944682996078789 0.020053774864794413 0.00051498906057264183 0.0028342536972940911
leaf_weight=216 38 37 40 38 21 20 57 191 54 21 21
leaf_count=216 38 37 40 38 21 20 57 191 54 21 21
internal_value=0.00106101 0.0341232 0.0135714 -0.0409639 -0.0241379 0.0303922 -0.0397436 0.0443262 0.0324176 0.0402439 0.0309524
internal_weight=754 422 140 332 116 102 78 282 91 82 42
internal_count=754 422 140 332 116 102 78 282 91 82 42
is_linear=0
shrinkage=0.05


Tree=17
num_leaves=14
num_cat=0
split_feature=10 10 27 13 27 10 11 10 10 10 14 5 1
split_gain=397.115 50.8418 35.7299 33.4163 18.3567 32.0513 23.3417 14.9382 8.15581 3.76471 7.20984 0.182063 0.118367
threshold=0.049699293938204138 -0.66201714265149425 0.082087656660860889 -0.35601701250715884 0.17439680738450331 0.92073717364203111 0.45335766424973373 -0.44672389510285626 -0.29414281283600202 0.43298923216335705 0.51645948986452217 1.5964551482880058 0.21632719077379239
decision_type=2 2 2 2 2 2 2 2 2 2 2 2 2
left_child=1 11 3 7 9 6 -6 -3 -5 10 12 -1 -2
right_child=4 2 -4 8 5 -7 -8 -9 -10 -11 -12 -13 -14
leaf_value=-0.015578555115901277 0.0042610539536463545 -0.00068351060936857895 -0.007723175475631565 -0.0018516698409107885 0.00051681883791003871 0.020183027220934364 -0.00060046981311276675 0.0013347326388152574 -7.2142907598153968e-05 0.014614198037271115 0.00087704518292165137 -0.022118611630499486 0.0038093875579538559
leaf_weight=203 29 23 48 29 23 50 31 34 38 180 26 20 20
leaf_count=203 29 23 48 29 23 50 31 34 38 180 26 20 20
internal_value=0.000795756 -0.0337975 -0.0133721 0.000806452 0.0388579 0.0211538 -0.00555556 0.0289474 -0.0231343 0.0460784 0.0366667 -0.0495516 0.0479592
internal_weight=754 395 172 124 359 104 54 57 67 255 75 223 49
internal_count=754 395 172 124 359 104 54 57 67 255 75 223 49
is_linear=0
shrinkage=0.05


Tree=18
num_leaves=16
num_cat=0
split_feature=10 10 16 14 10 17 10 13 13 28 10 20 10 10 1
split_gain=363.271 52.4482 37.8612 36.5873 14.9694 28.6423 12.0603 11.0359 6.32258 10.4312 4.13617 2.40419 6.42069 1.07471 0.135484
threshold=0.049699293938204138 -0.68982290024354886 -0.77082548789986394 -0.52289098326567418 0.70049368927700761 -1.0297443867405125 -0.41534718984493807 -0.13866576629202246 0.3927157987389151 -0.19301156935369759 -0.44672389510285626 -0.92230752349026179 0.93847141118950861 -0.83975862642048382 -0.52841988266325191
decision_type=2 2 2 2 2 2 2 2 2 2 2 2 2 2 2
left_child=1 13 -3 10 5 -2 -5 -8 14 -10 -4 12 -6 -1 -7
right_child=4 2 3 6 11 8 7 -9 9 -11 -12 -13 -14 -15 -16
leaf_value=-0.018340899568662163 -0.00056393754590473714 -0.0077282385389344068 0.00055766349873124653 -0.0020235072637644035 0.0018208805841912869 0.0050661576246716624 0.00029332148268194084 -0.00073785024694205672 0.0027658398845750707 3.4189218822403002e-05 0.001582977762953855 0.018950678782742217 0.022911505036610744 -0.0052920278696250191 0.0048445982651033372
leaf_weight=187 34 48 20 26 20 20 22 36 38 24 27 143 38 29 42
leaf_count=187 34 48 20 26 20 20 22 36 38 24 27 143 38 29 42
internal_value=0.00106101 -0.0320253 -0.0120112 0.0019084 0.0374652 0.0259494 -0.0178571 -0.00517241 0.0370968 0.0258065 0.037234 0.0465174 0.037931 -0.0486111 0.0483871
internal_weight=754 395 179 131 359 158 84 58 124 62 47 201 58 216 62
internal_count=754 395 179 131 359 158 84 58 124 62 47 201 58 216 62
is_linear=0
shrinkage=0.05


Tree=19
num_leaves=17
num_cat=0
split_feature=10 10 27 11 27 10 10 13 10 13 27 10 10 11 10 7
split_gain=350.996 53.4788 53.0113 16.7291 12.8692 26.7998 12.2918 19.9802 5.36865 10.9786 4.8 3.99686 1.38522 1.03704 1.71429 0.486275
threshold=-0.34454084956286107 0.38516174399406722 0.040465037372981093 0.34888125817754095 1.4279413479438017 0.93847141118950861 -0.68982290024354886 -0.95046157091834726 -0.085401087661083855 -0.35601701250715884 -0.64131181941035809 0.10083408376745291 0.48241315350950448 -1.519784474830052 -1.4175283348692462 -0.077778390660614524
decision_type=2 2 2 2 2 2 2 2 2 2 2 2 2 2 2 2
left_child=6 2 3 8 12 -6 13 -8 9 -2 -9 -4 -3 14 -1 -10
right_child=1 4 11 -5 5 -7 7 10 15 -11 -12 -13 -14 -15 -16 -17
leaf_value=-0.028126738162954593 0.001070439640030775 0.0022411575807405452 -0.0050876785053335667 -4.0954705379034691e-05 -9.1299147706344627e-05 0.018745078057890024 0.00044350652036475316 -0.00070257113595152969 0.0026536872475341985 -8.1864410060235836e-05 -0.0038565113491180339 -0.00045195270374286567 0.014405077559765323 -0.014390671797272759 -0.0095318596653869141 0.002783833510264011
leaf_weight=27 23 23 26 39 31 42 21 20 31 20 40 25 177 168 21 20
leaf_count=27 23 23 26 39 31 42 21 20 31 20 40 25 177 168 21 20
internal_value=0.000397878 0.0278993 0.00706522 0.0236842 0.0419414 0.0239726 -0.0419192 -0.0253086 0.0351064 0.022093 -0.04 -0.0362745 0.0485 -0.0481481 -0.0416667 0.0460784
internal_weight=754 457 184 133 273 73 297 81 94 43 60 51 200 216 48 51
internal_count=754 457 184 133 273 73 297 81 94 43 60 51 200 216 48 51
is_linear=0
shrinkage=0.05


Tree=20
num_leaves=18
num_cat=0
split_feature=10 10 19 13 10 11 19 14 10 15 10 19 10 10 11 10 10
split_gain=314.559 39.3353 33.0095 33.2732 30.1145 36.33 14.2629 6.66667 8.1 6.05957 15.403 5.6006 5.14469 4.09662 7.46667 3.4381 1.2375
threshold=-0.033572407423656886 -0.68982290024354886 -0.76645850579664765 -0.22798669750270464 0.61863483936396624 0.31728958195403917 -0.76344992375745957 -0.93071750553852761 -0.34454084956286107 -1.154487140129741 0.98525240263597491 -0.75356033231634811 -0.33944665879233143 -0.90004096217852469 -0.97894928602085696 0.4089456869009585 0.1309107554226363
decision_type=2 2 2 2 2 2 2 2 2 2 2 2 2 2 2 2 2
left_child=1 13 -3 7 5 11 -7 -4 -9 10 -6 -2 -5 -1 -15 -8 -13
right_child=4 2 3 12 9 6 15 8 -10 -11 -12 16 -14 14 -16 -17 -18
leaf_value=-0.016711264926550364 0.00038753099997746663 -0.0073719480234014229 0.0014169400359758336 -0.0017846304939859031 2.8153234064298704e-05 -0.00081932333271619482 -6.9525109315910283e-05 -0.00066794252741703489 0.00031116317126442461 0.017448982169097002 0.01786007585627249 0.0010776470817440819 -0.00035370877289901968 -0.0029197035298679482 -0.006368220599487124 0.0013081421246638762 0.0045350363081201623
leaf_weight=159 20 44 24 24 24 21 28 20 20 160 43 20 28 20 28 20 44
leaf_count=159 20 44 24 24 24 21 28 20 20 160 43 20 28 20 28 20 44
internal_value=0.00127175 -0.0317439 -0.013125 0.000862069 0.0331579 0.0160131 -0.0108696 0.025 0.0125 0.0447137 0.0320896 0.0380952 -0.0288462 -0.0461353 -0.0333333 0.00416667 0.0453125
internal_weight=747 367 160 116 380 153 69 64 40 227 67 84 52 207 48 48 64
internal_count=747 367 160 116 380 153 69 64 40 227 67 84 52 207 48 48 64
is_linear=0
shrinkage=0.05


Tree=21
num_leaves=17
num_cat=0
split_feature=10 10 27 27 10 10 12 28 10 19 10 27 2 5 5 2
split_gain=311.449 51.3595 41.1727 25.5829 40.4372 8.27082 7.01078 6.34062 4.45091 4.40238 4.09662 5.7971 3.57715 2.53382 2.05329 0.514286
threshold=0.14795069819689588 -0.68982290024354886 -0.25516445462857251 -0.027852885007691352 0.98525240263597491 -0.40164528047365694 0.61518204365230755 0.61458148108913868 0.44805425608357102 0.28651858884648324 -0.90004096217852469 -0.57050029171893535 -0.038838834830910697 -0.3458168135510577 0.65915704165342603 -0.45727842421878301
decision_type=2 2 2 2 2 2 2 2 2 2 2 2 2 2 2 2
left_child=1 10 5 8 7 12 14 -5 13 15 -1 -12 -3 -2 -7 -4
right_child=3 2 9 4 -6 6 -8 -9 -10 -11 11 -13 -14 -15 -16 -17
leaf_value=-0.015875701680222846 0.0033197940874902529 -0.00089550394775194113 -0.004885031604697658 -0.00070751882413092613 0.017086917701537821 0.00037753900585845378 -2.9384498219671995e-05 0.00022183807241064475 0.014851636922255981 -0.00071533905543438641 -0.0014899995614532507 -0.0084857743850355639 0.00017907326922977365 0.0030335056297050855 0.00095803557451062677 -0.0063071537339154798
leaf_weight=159 24 23 20 25 50 33 28 36 170 24 23 25 20 31 20 36
leaf_count=159 24 23 20 25 50 33 28 36 170 24 23 25 20 31 20 36
internal_value=0.00060241 -0.0285888 -0.0107843 0.0363095 0.0166667 0.00725806 0.0166667 -0.0106557 0.046 -0.03875 -0.0461353 -0.0333333 -0.0104651 0.0336364 0.0273585 -0.0464286
internal_weight=747 411 204 336 111 124 81 61 225 80 207 48 43 55 53 56
internal_count=747 411 204 336 111 124 81 61 225 80 207 48 43 55 53 56
is_linear=0
shrinkage=0.05


Tree=22
num_leaves=18
num_cat=0
split_feature=10 10 19 10 11 13 19 10 13 15 10 20 10 11 5 2 2
split_gain=299.544 36.7569 34.413 31.2081 38.3794 31.1168 11.4353 11.2264 9.43749 6.66081 15.9104 5.48571 5.21049 9.52381 2.66597 0.459574 0.175
threshold=1.0000000180025095e-35 -0.68982290024354886 -0.76645850579664765 0.61863483936396624 0.31728958195403917 -0.74020436217614882 -0.76344992375745957 -0.41534718984493807 -0.13866576629202246 -1.154487140129741 1.062239058185299 0.4786943129890065 -0.92588676242300372 -0.97894928602085696 -0.49466715936921291 0.24403367863100714 -0.99305633283173089
decision_type=2 2 2 2 2 2 2 2 2 2 2 2 2 2 2 2 2
left_child=1 12 -3 4 14 -4 -6 -7 -9 10 -5 -8 -1 -14 -2 -16 -11
right_child=3 2 5 9 6 7 11 8 -10 16 -12 -13 13 -15 15 -17 -18
leaf_value=-0.015643061688247573 0.0022517990151314296 -0.0061800813383404186 0.0012236760091754646 3.8887591154090213e-05 -0.00078199328380733129 -0.0014266357863520389 0.00092437271765269738 0.00020276997987951628 -0.0008951449232070058 0.017329265369421726 0.016352417454539886 -0.00019193612435681358 -0.0014566701422436658 -0.0058004152208505485 0.0020450368328445889 0.0030541071160884517 0.015690543989025234
leaf_weight=151 30 47 39 26 20 24 20 25 33 20 41 28 24 32 20 27 140
leaf_count=151 30 47 39 26 20 24 20 25 33 20 41 28 24 32 20 27 140
internal_value=0.000468541 -0.0310667 -0.0136905 0.0322581 0.0141379 0.000413223 -0.0132353 -0.0170732 -0.00517241 0.0438326 0.030597 0 -0.0451691 -0.0321429 0.0383117 0.0457447 0.049375
internal_weight=747 375 168 372 145 121 68 82 58 227 67 48 207 56 77 47 160
internal_count=747 375 168 372 145 121 68 82 58 227 67 48 207 56 77 47 160
is_linear=0
shrinkage=0.05


Tree=23
num_leaves=18
num_cat=0
split_feature=10 10 15 13 27 10 13 10 11 14 10 10 13 10 11 2 3
split_gain=288.273 51.4008 35.7908 29.171 26.4065 37.371 15.8844 9.99784 20.2341 8.01341 9.38275 5.53091 12.1 5.21049 9.52381 0.486275 0.175758
threshold=0.14795069819689588 -0.68982290024354886 -1.154487140129741 -0.22798669750270464 -0.027852885007691352 1.1360971414222247 0.79779874541671536 -0.33944665879233143 0.31728958195403917 -0.93071750553852761 -0.25053891750670126 0.48241315350950448 0.5052603872933733 -0.92588676242300372 -0.97894928602085696 -0.23121466300287744 1.422556415150493
decision_type=2 2 2 2 2 2 2 2 2 2 2 2 2 2 2 2 2
left_child=1 13 15 9 11 6 -6 -5 -9 -4 -11 12 -2 -1 -15 -3 -13
right_child=4 2 3 7 5 -7 -8 8 -10 10 -12 16 -14 14 -16 -17 -18
leaf_value=-0.014860908603835194 0.0043530088800277783 -0.0047700880309970942 0.0013576017671070733 -0.0017076820409551762 0.00040266095033870004 0.016808455211820977 -0.00054306019460186321 0.00013781082302559734 -0.00082073621194670853 -0.0004223024792688046 0.0013142365075296193 0.01322339529225048 0.00073809994673891273 -0.001383836635131483 -0.0055103944598080198 -0.0057784876204509533 0.015119084050741222
leaf_weight=151 36 20 26 25 34 45 32 26 23 25 28 145 24 24 32 31 20
leaf_count=151 36 20 26 25 34 45 32 26 23 25 28 145 24 24 32 31 20
internal_value=0.000468541 -0.0276156 -0.00980392 0.00228758 0.0348214 0.0148649 -0.00909091 -0.0202703 -0.00714286 0.0234177 0.0122642 0.0446667 0.0316667 -0.0451691 -0.0321429 -0.0460784 0.0493939
internal_weight=747 411 204 153 336 111 66 74 49 79 53 225 60 207 56 51 165
internal_count=747 411 204 153 336 111 66 74 49 79 53 225 60 207 56 51 165
is_linear=0
shrinkage=0.05


Tree=24
num_leaves=18
num_cat=0
split_feature=10 10 27 10 11 27 13 27 10 15 27 10 10 11 10 0 0
split_gain=284.459 39.716 37.5643 31.3745 37.8947 27.225 23.7206 10.3846 9.87038 7.94118 7.92016 17.5317 5.45619 9.25926 0.665519 0.4 0.121569
threshold=-0.016209781347692062 -0.69783579787085614 0.040465037372981093 0.63563111071393485 0.31728958195403917 -0.50864057832197651 -0.74020436217614882 -0.21450496179557879 -0.41534718984493807 0.24244416331294111 1.4501687508788923 1.1877353657259386 -0.92588676242300372 -0.97894928602085696 0.74832441236661529 0.039796082966976946 0.028495369149897559
decision_type=2 2 2 2 2 2 2 2 2 2 2 2 2 2 2 2 2
left_child=1 12 6 4 7 -6 -3 -2 -8 -10 14 -12 -1 -14 -5 -7 -4
right_child=3 2 16 10 5 15 8 -9 9 -11 11 -13 13 -15 -16 -17 -18
leaf_value=-0.014117863173643436 0.0030847245138992314 0.0011553809105191383 -0.0052981719591318685 0.0024412244214402968 0.0022327874185717662 -0.0005524741505163772 -0.00099221245489778407 0.00023268482253133925 0.00011138048696374935 -0.00014758922962519738 -0.00011741398502320978 0.016804008014491688 -0.0013146448033749094 -0.0052348747368176204 0.016062030161796744 -0.00083808580138493923 -0.0067057263362582109
leaf_weight=151 54 37 31 21 32 20 25 26 20 34 23 34 24 30 145 20 20
leaf_count=151 54 37 31 21 32 20 25 26 20 34 23 34 24 30 145 20 20
internal_value=0.00060241 -0.0303763 -0.0122754 0.0313333 0.0138158 -0.0125 0.00344828 0.0375 -0.0120253 0 0.0432735 0.027193 -0.045122 -0.0314815 0.0487952 -0.04 -0.0480392
internal_weight=747 372 167 375 152 72 116 80 79 54 223 57 205 54 166 40 51
internal_count=747 372 167 375 152 72 116 80 79 54 223 57 205 54 166 40 51
is_linear=0
shrinkage=0.05


Tree=25
num_leaves=19
num_cat=0
split_feature=10 10 27 27 10 13 13 10 10 10 13 28 10 13 13 27 13 10
split_gain=297.087 35.0905 36.6104 30.9857 41.708 26.1594 18.5045 15.361 12.6344 11.2667 9.91088 7.01671 3.84266 10.1106 2.27653 1.92 1.6 0.146886
threshold=0.049699293938204138 -0.93875527544739945 0.12763598852970157 -0.17869084148384098 1.1360971414222247 -0.72797576790511886 0.82603813521560066 -0.41534718984493807 0.5114360498711491 -0.79969090336362958 0.16304493432208642 0.13966007929812088 0.72824687941389732 0.69761144013870624 0.45548330063982428 -0.69153852087597312 -0.95046157091834726 -1.0152401139824172
decision_type=2 2 2 2 2 2 2 2 2 2 2 2 2 2 2 2 2 2
left_child=1 17 5 12 6 9 8 15 -5 -3 11 -9 13 14 -2 -7 -11 -1
right_child=3 2 -4 4 -6 7 -8 10 -10 16 -12 -13 -14 -15 -16 -17 -18 -19
leaf_value=-0.016116900004121949 0.003902381421800786 -0.00045433678770601951 -0.0071221542448603337 -0.0002382937260494881 0.013562230443062387 -0.001704707357456449 -0.00083165562884111172 0.00034901247690153524 0.0010003347434345625 0.0012304118502372329 -0.0010316847201014446 -0.00017298794756233186 0.015995118258874438 0.00090344587448038395 0.0019015152248315903 -0.002606586086749216 0.0009118860298935567 -0.0041111901992235021
leaf_weight=125 62 24 68 34 52 20 34 27 25 20 23 20 118 24 21 30 20 23
leaf_count=125 62 24 68 34 52 20 34 27 25 20 23 20 118 24 21 30 20 23
internal_value=-0.00012987 -0.03 -0.0186508 0.0321622 0.0141379 -0.00706522 -0.00591398 -0.0208333 0.0110169 0.01875 -0.00571429 0.00744681 0.0437778 0.0369159 0.0451807 -0.042 0.035 -0.0493243
internal_weight=770 400 252 370 145 184 93 120 59 64 70 47 225 107 83 50 40 148
internal_count=770 400 252 370 145 184 93 120 59 64 70 47 225 107 83 50 40 148
is_linear=0
shrinkage=0.05


Tree=26
num_leaves=19
num_cat=0
split_feature=10 10 19 15 10 13 13 10 11 10 13 28 10 10 28 10 19 0
split_gain=281.958 33.7608 36.5062 25.7635 39.7091 24.7319 22.5321 14.9239 16.8495 13.2528 23.0769 19.0476 11.1692 6.55887 1.60297 1.16239 0.531892 0.123077
threshold=0.062339745080191661 -0.93875527544739945 -0.76645850579664765 -1.154487140129741 1.1509385514754678 -0.72797576790511886 0.79779874541671536 -0.41534718984493807 0.20717182093844472 0.54168093738286061 0.38498414535759468 -0.19301156935369759 -0.72538235747244351 -0.25053891750670126 -0.36969887711439581 0.72824687941389732 1.2703443889543806 -0.34897838309746704
decision_type=2 2 2 2 2 2 2 2 2 2 2 2 2 2 2 2 2 2
left_child=1 16 -3 4 6 12 -2 14 13 10 17 -12 -4 -9 -7 -11 -1 -5
right_child=3 2 5 9 -6 7 -8 8 -10 15 11 -13 -14 -15 -16 -17 -18 -19
leaf_value=-0.013800956698770649 0.00056282999902559645 -0.0067660465326173161 -0.00043161994832071894 0.0035216621370292925 0.01251244204499234 -0.0011819609062771132 -0.00063904194339394317 -3.1221755787599197e-05 -0.00099914413474626795 0.0025734732140939923 0.0014670925020918324 -0.00029397726744882644 0.0010167677204238668 0.0002822631739894943 -0.0026075796118427254 0.015055828987632658 -0.014003266539229026 0.0034268443924394018
leaf_weight=123 34 68 26 20 39 22 32 20 26 26 27 21 39 27 27 136 25 32
leaf_count=123 34 68 26 20 39 22 32 20 26 26 27 21 39 27 27 136 25 32
internal_value=-0.000779221 -0.0296526 -0.0186275 0.0309264 0.01 -0.00721925 -0.0136364 -0.0204918 -0.00616438 0.039313 0.025 0 0.0176923 0.0117021 -0.0418367 0.0481481 -0.0486486 0.0480769
internal_weight=770 403 255 367 105 187 66 122 73 262 100 48 65 47 49 162 148 52
internal_count=770 403 255 367 105 187 66 122 73 262 100 48 65 47 49 162 148 52
is_linear=0
shrinkage=0.05


Tree=27
num_leaves=22
num_cat=0
split_feature=10 10 15 11 17 10 13 10 11 10 11 12 10 13 13 10 8 1 0 0 0
split_gain=280.96 36.0432 37.4891 23.2837 22.2294 27.9604 28.4662 19.1073 19.9349 8.42902 20.9115 7.19582 5.62139 21.3471 4.41472 2.74023 2.70941 0.4 0.134426 0.132203 0.102439
threshold=0.14795069819689588 -0.72538235747244351 -0.95952925520524535 0.20717182093844472 0.32360407584872491 1.1509385514754678 0.87008968211237414 -0.27180043129575132 -0.95351648368675346 0.72824687941389732 0.76363218613682304 0.12047306213642835 -1.0237406758476399 -1.2043676689724192 0.5052603872933733 -0.12448862986163031 -0.27096854602031134 -0.10946713804333165 0.9042559133913437 0.25156827180639146 -0.66626837896794666
decision_type=2 2 2 2 2 2 2 2 2 2 2 2 2 2 2 2 2 2 2 2 2
left_child=1 12 19 7 5 6 16 8 -4 10 14 -10 -1 -14 -6 -9 -2 -5 -15 -3 -7
right_child=4 2 3 17 9 20 -8 15 11 -11 -12 -13 13 18 -16 -17 -18 -19 -20 -21 -22
leaf_value=-0.01483477148143262 0.001000888149837495 -0.004622834253570374 0.00096218511706216286 -0.00098285644735968906 0.0037536779813583778 0.012644291198154837 -0.00057675437020945355 0.00049190801463485788 -0.00095569165988963973 0.01432332214736147 -0.00038802151268265973 -0.00033906701566588094 0.00046724354269397087 -0.0038105700027579684 0.00079560508040168185 0.0011261155187324511 0.00092217650631155478 -0.00093633496488208096 -0.0041073600815591405 -0.0045989915059718557 0.011886819942742722
leaf_weight=122 20 39 20 20 55 20 31 23 22 131 20 31 22 41 23 28 21 20 20 20 21
leaf_count=122 20 39 20 20 55 20 31 23 22 131 20 31 22 41 23 28 21 20 20 20 21
internal_value=-0.00103896 -0.0280374 -0.0141256 -0.00182927 0.0327485 0.0146018 -0.00416667 0.00887097 -0.00753425 0.0417031 0.0306122 -0.0235849 -0.0431707 -0.0331325 0.0423077 0.0323529 0.0231707 -0.035 -0.0483607 -0.0483051 0.047561
internal_weight=770 428 223 164 342 113 72 124 73 229 98 53 205 83 78 51 41 40 61 59 41
internal_count=770 428 223 164 342 113 72 124 73 229 98 53 205 83 78 51 41 40 61 59 41
is_linear=0
shrinkage=0.05


Tree=28
num_leaves=20
num_cat=0
split_feature=10 10 15 10 18 13 13 13 10 28 10 10 13 15 13 10 10 10 2
split_gain=244.544 29.2258 38.2854 27.1921 32.9427 23.9715 15.1569 13.9421 25.1306 23.4377 10.1886 9.13049 8.56805 3.54632 3.20017 2.26713 2.2655 1.82163 0.161905
threshold=-0.016209781347692062 1.2251233616644961 -1.154487140129741 -0.93875527544739945 -0.98080697932407546 -0.74615768595645349 0.79779874541671536 0.38498414535759468 0.81196702160481982 -0.22351164691149708 -0.41534718984493807 -0.72538235747244351 0.14133281229979924 0.52743853882403025 0.71863124221546426 0.13637938821995682 -1.0577510106093253 -0.69783579787085614 -0.8646526341396682
decision_type=2 2 2 2 2 2 2 2 2 2 2 2 2 2 2 2 2 2 2
left_child=3 2 6 16 -5 11 -2 15 9 14 17 -6 13 -12 -9 -4 -1 -7 -3
right_child=1 18 7 4 5 10 -8 8 -10 -11 12 -13 -14 -15 -16 -17 -18 -19 -20
leaf_value=-0.015699335628903036 0.00029298092564927357 0.019301516844222693 0.0010769555178410835 -0.0065072137980961928 -0.00031194079831287915 -0.0041211885673638638 -0.00051190527802742888 0.0018469705743330456 0.0078892168556558076 -0.00023469167091112189 0.00013973069581233211 0.0010117852923042028 -0.00090120714270291015 -6.7781887824675072e-05 0.00075582482638159867 0.0037873701071912767 -0.0028524342515416305 -0.0011528469627240634 0.019758401164334579
leaf_weight=114 37 20 21 64 25 20 36 21 42 36 20 36 20 22 25 61 34 31 85
leaf_count=114 37 20 21 64 25 20 36 21 42 36 20 36 20 22 25 61 34 31 85
internal_value=-0.00168831 0.0265625 0.0181004 -0.0297927 -0.0193277 -0.00804598 -0.0130137 0.0291262 0.0185484 0.00243902 -0.0216814 0.0172131 -0.00806452 0.0047619 0.026087 0.045122 -0.0466216 -0.0382353 0.0490476
internal_weight=770 384 279 386 238 174 73 206 124 82 113 61 62 42 46 82 148 51 105
internal_count=770 384 279 386 238 174 73 206 124 82 113 61 62 42 46 82 148 51 105
is_linear=0
shrinkage=0.05


Tree=29
num_leaves=21
num_cat=0
split_feature=10 27 10 10 27 14 14 10 10 23 14 10 11 10 11 12 10 10 2 0
split_gain=243.888 35.7468 38.6419 27.8516 37.5561 17.5782 16.0249 10.6794 9.01492 8.40303 10.7133 25.2 7.67276 6.63257 23.0682 5.26753 2.49616 0.630757 0.444444 0.109091
threshold=0.062339745080191661 -0.18837701110376417 1.2251233616644961 -1.0237406758476399 -0.6255975305300433 -0.75326341093032767 0.37498581222634886 -0.40164528047365694 0.56616524053856587 -0.86291847712689407 -0.34007173605946706 -0.56757849635242497 1.1023042874164761 0.81196702160481982 0.76363218613682304 -0.22420529400323944 0.2373533822911566 -1.1534096262332627 0.086387611628233593 -0.36917351720389041
decision_type=2 2 2 2 2 2 2 2 2 2 2 2 2 2 2 2 2 2 2 2
left_child=3 13 6 17 5 15 -3 -7 -8 -6 11 -11 -10 14 16 -5 -2 -1 -12 -4
right_child=1 2 19 4 9 7 8 -9 12 10 18 -13 -14 -15 -16 -17 -18 -19 -20 -21
leaf_value=-0.01601188835373003 0.0017008766522029796 0.00033939867781353781 0.013512574362009309 0.0009824568837467967 -0.0064200380116601844 -0.001305635986957135 -0.0008225404629024699 0.00014372173121233526 0.00011418056345617462 -0.0026673398389142457 -0.0025209247299855077 0.00019704466702676895 -0.00045029864045450368 0.015242734421565485 -9.7877206924926194e-05 0.00026958091868314882 0.00322103111954854 -0.0030577739728528067 -0.0014957806540021011 0.012321137980927504
leaf_weight=101 28 23 24 22 57 34 27 33 28 35 25 35 23 101 28 20 65 21 20 20
leaf_count=101 28 23 24 22 57 34 27 33 28 35 25 35 23 101 28 20 65 21 20 20
internal_value=-0.00155844 0.0279292 0.00862069 -0.0284119 -0.0197509 0.00321101 -0.00841584 -0.0126866 -0.0192308 -0.0343023 -0.0265217 -0.0142857 -0.00686275 0.0405405 0.0326446 0.0285714 0.0446237 -0.0483607 -0.0455556 0.0477273
internal_weight=770 367 145 403 281 109 101 67 78 172 115 70 51 222 121 42 93 122 45 44
internal_count=770 367 145 403 281 109 101 67 78 172 115 70 51 222 121 42 93 122 45 44
is_linear=0
shrinkage=0.05


Tree=30
num_leaves=22
num_cat=0
split_feature=10 10 28 11 10 10 14 14 10 17 28 10 14 19 12 10 14 7 10 0 0
split_gain=259.04 33.8815 33.5292 19.9865 18.5128 14.5335 21.9462 13.7857 13.12 11.4353 9.77121 9.0443 19.0327 3.69647 2.6389 2.44102 4.44706 0.978462 0.166942 0.161538 0.144444
threshold=-0.29414281283600202 1.0083056579160725 0.13966007929812088 0.31728958195403917 0.56616524053856587 -1.0577510106093253 -1.032474336575244 1.1123919192685021 0.1309107554226363 0.46705541262639233 -0.95823867183214217 0.27338635098157599 0.45454081228767124 -1.1988278414606472 -0.4565056017754307 -0.55211719469327492 -0.35675276703396924 -0.36593580286121108 -1.1838118117454293 -1.0655187742052405 0.99375892803071142
decision_type=2 2 2 2 2 2 2 2 2 2 2 2 2 2 2 2 2 2 2 2 2
left_child=5 2 7 8 -5 18 9 11 -4 -7 -8 12 14 -3 -2 20 -17 -13 -1 -15 -12
right_child=1 13 3 4 -6 6 10 -9 -10 -11 15 17 -14 19 -16 16 -18 -19 -20 -21 -22
leaf_value=-0.01535975200044783 0.0010838873641623749 0.0035391367343158703 -0.00016718961554981586 -0.00081521494520244298 3.8939507274268761e-05 -0.0037763007801969286 -2.6059814847313734e-05 -0.00015388402230111787 0.0012998513640970254 0.00060268502548043725 -0.0041033481899063985 0.0025597661089549421 -0.00036890320170426539 0.019212917755500727 0.001125664170738705 -0.00054202835838566832 -0.0025104592638896905 0.0028528328871150798 -0.0034967560245872222 0.015843887405341327 -0.0033085672863279987
leaf_weight=101 22 28 36 39 39 20 20 20 28 34 52 25 20 20 37 21 30 53 20 84 20
leaf_count=101 22 28 36 39 39 20 20 20 28 34 52 25 20 20 37 21 30 53 20 84 20
internal_value=-0.000975293 0.0233925 0.0145768 -0.00352113 -0.0205128 -0.0355346 -0.0271574 0.029096 0.0171875 0 -0.0374126 0.0340764 0.0221519 0.044697 0.0364407 -0.0426829 -0.0343137 0.0461538 -0.0491736 0.0490385 -0.0486111
internal_weight=769 451 319 142 78 318 197 177 64 54 143 157 79 132 59 123 51 78 121 104 72
internal_count=769 451 319 142 78 318 197 177 64 54 143 157 79 132 59 123 51 78 121 104 72
is_linear=0
shrinkage=0.05


Tree=31
num_leaves=21
num_cat=0
split_feature=10 27 10 14 10 13 10 10 13 27 28 10 11 10 10 8 11 10 10 6
split_gain=249.697 46.278 46.1926 18.375 17.8055 18.5554 17.2913 15.9047 25.4682 19.1088 7.75773 6.78184 7.90639 4.63239 2.60262 1.92634 1.49941 4.14016 0.166942 0.161165
threshold=-0.29414281283600202 -0.50864057832197651 1.2564349641510175 0.23669733158360087 0.63563111071393485 1.0871095653484004 0.085489239239745204 -1.0577510106093253 -1.0779152515640251 -0.36497688446464582 -0.95823867183214217 0.13637938821995682 0.068343932732276486 -0.40164528047365694 0.18268889003009692 0.68962871287365668 1.0587742592539717 1.062239058185299 -1.1838118117454293 -1.0843753898153687
decision_type=2 2 2 2 2 2 2 2 2 2 2 2 2 2 2 2 2 2 2 2
left_child=7 11 3 6 14 -6 -3 18 9 -9 -10 12 -2 15 -5 -12 19 -18 -1 -13
right_child=1 2 -4 4 5 -7 -8 8 10 -11 13 16 -14 -15 -16 -17 17 -19 -20 -21
leaf_value=-0.014591764400425439 0.0010834844755715038 -0.00018627201255047509 0.014145995379605323 -0.0015633103120851139 0.0011502818861821931 -0.00026784998008879405 0.0012772033665924055 0.00086066067171205465 -7.0815896755607738e-05 -0.0034639252604217463 -0.0038981807804110802 0.0034886078714081118 3.5998798057701625e-05 -0.0021312246690424279 -0.00038076404451932791 -0.0017184740291950745 0.0020891217081998427 0.019524768372146825 -0.0033219182233578618 0.0038786815143496121
leaf_weight=101 31 31 52 25 32 35 33 28 22 21 76 20 20 25 36 25 21 32 20 83
leaf_count=101 31 31 52 25 32 35 33 28 22 21 76 20 20 25 36 25 21 32 20 83
internal_value=-0.000975293 0.022949 0.00819672 -0.003125 -0.0140625 0.00373134 0.01875 -0.0349057 -0.0261421 0.00510204 -0.0364865 0.0403382 0.0245098 -0.0412698 -0.0336066 -0.0460396 0.0455128 0.0386792 -0.0491736 0.0490291
internal_weight=769 451 244 192 128 67 64 318 197 49 148 207 51 126 61 101 156 53 121 103
internal_count=769 451 244 192 128 67 64 318 197 49 148 207 51 126 61 101 156 53 121 103
is_linear=0
shrinkage=0.05


Tree=32
num_leaves=23
num_cat=0
split_feature=10 27 10 10 27 14 12 1 12 27 10 14 27 10 11 10 11 11 10 20 5 2
split_gain=234.124 43.6297 45.7158 21.6446 20.3595 20.7227 18.3176 9.52088 8.14305 7.73296 6.83207 7.44546 5.59895 11.6805 16.9 4.43111 4.59476 2.09592 5.63522 0.16748 0.161165 0.125926
threshold=-0.28341864761729918 -0.50864057832197651 1.2564349641510175 -0.66201714265149425 0.17439680738450331 -0.49440617059445929 -0.3129598598043295 -0.45356882019091982 0.35560985511134152 -0.23124414533572482 0.13637938821995682 0.064167760249481842 -0.63181324211656464 -1.0577510106093253 -0.95351648368675346 0.69265749917206276 0.42988470483601315 1.0587742592539717 1.062239058185299 1.2557860241254508 -1.0860204213450086 0.18430651343785387
decision_type=2 2 2 2 2 2 2 2 2 2 2 2 2 2 2 2 2 2 2 2 2 2
left_child=3 10 6 12 5 -5 7 -3 -7 -8 11 -2 13 21 -15 16 -11 20 -19 -14 -12 -1
right_child=1 2 -4 4 -6 8 9 -9 -10 15 17 -13 19 14 -16 -17 -18 18 -20 -21 -22 -23
leaf_value=-0.0087418363554026771 0.0011751248541963912 -1.8975225451720037e-05 0.013438695610625054 0.0004553276756077529 -0.0057069201719263385 -0.00063618592559483303 6.1840399657127085e-05 0.00089709830446692567 -1.074125521922098e-05 -0.00073618571528899761 0.0033141774778377067 7.3530604083041004e-06 -0.0089274036389368292 0.00058040067604464291 -0.0022790609428521512 -0.00011791373221317348 -0.00099710510726550364 0.0019846656227898497 0.018548529953539488 -0.0067550932745633193 0.0036847474386321314 -0.0099592266141932204
leaf_weight=34 29 21 52 31 29 21 33 39 23 32 20 20 103 20 20 37 29 21 32 20 83 20
leaf_count=34 29 21 52 31 29 21 33 39 23 32 20 20 103 20 20 37 29 21 32 20 83 20
internal_value=-0.000585176 0.0227679 0.00843621 -0.0331776 -0.0144231 -0.000666667 -0.00287958 0.02 -0.0227273 -0.0133588 0.0397561 0.0234694 -0.0421659 -0.0329787 -0.0125 -0.0204082 -0.0286885 0.0448718 0.0367925 -0.049187 0.0490291 -0.0481481
internal_weight=769 448 243 321 104 75 191 60 44 131 205 49 217 94 40 98 61 156 53 123 103 54
internal_count=769 448 243 321 104 75 191 60 44 131 205 49 217 94 40 98 61 156 53 123 103 54
is_linear=0
shrinkage=0.05


Tree=33
num_leaves=20
num_cat=0
split_feature=10 27 10 10 27 13 13 10 11 27 10 10 10 13 16 0 13 13 5
split_gain=213.762 37.071 36.7706 33.2544 37.9809 27.8751 16.3091 13.5067 28.3641 10.639 9.57635 8.463 7.92947 18.9113 5.19699 4.89586 3.82828 2.34937 0.561194
threshold=-0.090394995901760297 -0.027852885007691352 1.4101794046371776 -0.65057037710679233 0.12763598852970157 -0.35601701250715884 0.70513907436509415 0.85022278491863978 0.90542927842408627 -0.73117998218301838 0.49947493199590953 0.16985070438368097 -1.1534096262332627 -1.3219311287382165 0.63588397600172397 0.42837263653807173 -0.95953123124102713 0.49330665838931814 0.43235970914705607
decision_type=2 2 2 2 2 2 2 2 2 2 2 2 2 2 2 2 2 2 2
left_child=3 7 6 12 5 14 10 8 11 -7 -3 -2 -1 -14 -5 -8 -15 -13 -18
right_child=1 2 -4 4 -6 9 15 -9 -10 -11 -12 17 13 16 -16 -17 18 -19 -20
leaf_value=-0.013215756785290207 0.00019229360717721509 -3.1610544624591232e-05 0.014722742717517084 0.00060655985729792742 -0.0041908052515417906 0.00024857192378434411 -0.00065211395592382768 0.011239623439995294 -0.0003782883967169443 -0.00092519207180171011 0.0010497252308694499 0.0024006088501616809 0.00032925479171953543 -0.0019869858434264616 0.0003832416930198701 -0.00012475509056938811 -0.0045569672424221972 0.00085224338924357881 -0.0021931639797958522
leaf_weight=105 39 29 33 28 42 20 34 105 25 35 21 62 21 28 26 20 47 29 20
leaf_count=105 39 29 33 28 42 20 34 105 25 35 21 62 21 28 26 20 47 29 20
internal_value=-0.000455137 0.025063 0.0040146 -0.0276882 -0.00960265 0.0059633 -0.0105769 0.0361538 0.0267742 -0.0190909 0.01 0.0361538 -0.0400452 -0.0310345 0.0314815 -0.0296296 -0.0405263 0.0445055 -0.0470149
internal_weight=769 397 137 372 151 109 104 260 155 55 50 130 221 116 54 54 95 91 67
internal_count=769 397 137 372 151 109 104 260 155 55 50 130 221 116 54 54 95 91 67
is_linear=0
shrinkage=0.05


Tree=34
num_leaves=18
num_cat=0
split_feature=10 27 10 10 27 14 10 11 10 14 28 10 10 28 10 23 10
split_gain=207.817 36.0996 36.4469 29.8232 46.8639 24.3828 16.3989 16.2102 15.8516 31.4565 14.2709 8.74398 7.05671 6.10159 3.57764 3.17658 0.667769
threshold=-0.090394995901760297 -0.027852885007691352 1.4321538139912733 -1.0577510106093253 -0.35966481883935969 -0.82070288850807049 -0.40164528047365694 1.0196057337911764 0.85022278491863978 0.48683653343353045 -0.58853979471774631 0.52755363598978267 -0.8509983570648435 -0.82701725944786408 0.1309107554226363 0.49977113329186507 -1.1838118117454293
decision_type=2 2 2 2 2 2 2 2 2 2 2 2 2 2 2 2 2
left_child=3 8 7 16 5 12 13 11 9 14 -11 -3 -5 -7 -2 -6 -1
right_child=1 2 -4 4 15 6 -8 -9 -10 10 -12 -13 -14 -15 -16 -17 -18
leaf_value=-0.012755018159192817 0.00036398302327214925 -0.00023029824985772997 0.014109845006005107 0.00018038016769725829 -0.0054911059929349196 -9.0832772386329619e-05 0.00013220231701254132 -0.00061950825812763651 0.01067764226799553 0.0006297217443904324 -0.00025808113482656897 0.00060326516771925251 0.0010304417170471359 -0.0013161066267127612 0.0022805784076535963 -0.0014274950898037876 -0.002612362663320403
leaf_weight=101 28 39 32 23 67 20 36 32 105 37 26 34 30 36 64 39 20
leaf_count=101 28 39 32 23 67 20 36 32 105 37 26 34 30 36 64 39 20
internal_value=-0.00110533 0.0240554 0.00328467 -0.027957 -0.0181275 0.000344828 -0.0152174 -0.0109524 0.035 0.0248387 -0.00238095 0.00205479 0.0273585 -0.0321429 0.0434783 -0.0433962 -0.0483471
internal_weight=769 397 137 372 251 145 92 105 260 155 63 73 53 56 92 106 121
internal_count=769 397 137 372 251 145 92 105 260 155 63 73 53 56 92 106 121
is_linear=0
shrinkage=0.05


Tree=35
num_leaves=23
num_cat=0
split_feature=10 10 28 10 16 14 10 0 14 10 11 28 11 10 28 14 14 7 15 14 10 0
split_gain=178.652 30.4262 35.6948 28.4074 31.1886 15.3305 33.608 13.1454 12.5062 17.0348 10.5324 9.90221 7.56491 7.50541 6.42553 3.0808 2.11028 2.00906 1.4087 1.12332 2.1256 0.140299
threshold=-0.090394995901760297 -1.1954700602059105 -0.29686264513712596 1.2564349641510175 -0.77268696941851778 0.5668977220400514 0.8709840991535428 0.58303587690066816 -0.94393415535082537 -0.70815155439943089 -0.77756092745238781 -0.58853979471774631 0.52604406348439003 -0.74547283010643273 0.11508962654973727 -0.32556976872535254 0.45454081228767124 0.011317075876401836 -1.1930272899800447 -0.34007173605946706 -0.7743655209252841 -0.30095952857423186
decision_type=2 2 2 2 2 2 2 2 2 2 2 2 2 2 2 2 2 2 2 2 2 2
left_child=1 -1 8 4 7 14 11 12 -3 -10 13 -7 -2 -4 16 -11 21 -17 -5 20 -12 -6
right_child=3 2 10 18 5 6 -8 -9 9 15 19 -13 -14 -15 -16 17 -18 -19 -20 -21 -22 -23
leaf_value=-0.013149194430640977 2.6790448650619236e-05 0.00071520080412279812 -0.0018476176796299094 0.0066572258819159319 0.0033578926217502241 0.00066062656233268485 0.0057597511557697049 9.3629068913620586e-05 -0.0024948062758747974 0.00022534479715791006 -0.0044512265496272855 -0.00030436516951367276 -0.00066107911241461426 0.00010209098395909875 0.00090188952926465176 -0.0004566506547844039 0.0017462826400266819 0.00014722722573212444 0.015239490937238262 -0.0027961178321913812 -0.00086092253444942099 0.002627319192693163
leaf_weight=97 22 33 34 20 20 30 35 26 22 28 22 34 38 24 31 20 20 21 72 46 23 47
leaf_count=97 22 33 34 20 20 30 35 26 22 28 22 34 38 24 31 20 20 21 72 46 23 47
internal_value=-0.000980392 -0.0259459 -0.0173993 0.0224051 0.0150165 0.0251152 0.0106061 -0.0104651 0.00241935 -0.00714286 -0.0338926 -0.0109375 -0.0233333 -0.0172414 0.0372881 0.00507246 0.0442529 -0.00365854 0.0467391 -0.0445055 -0.0388889 0.0485075
internal_weight=765 370 273 395 303 217 99 86 124 91 149 64 60 58 118 69 87 41 92 91 45 67
internal_count=765 370 273 395 303 217 99 86 124 91 149 64 60 58 118 69 87 41 92 91 45 67
is_linear=0
shrinkage=0.05


Tree=36
num_leaves=23
num_cat=0
split_feature=10 10 28 10 28 11 13 15 10 13 11 10 13 15 13 10 13 10 10 13 1 1
split_gain=178.483 36.2612 32.6846 23.8073 32.0937 19.4836 17.6002 14.3456 13.0652 14.0703 11.2397 9.5281 11.744 8.37751 10.3385 6.95834 3.24812 2.38825 1.33384 1.17993 0.427907 0.160784
threshold=-0.28341864761729918 0.8239604886832379 0.10052152891014268 -1.0801318068283505 -0.68002040148456966 0.87288402152506961 -0.28798536801524444 -1.1946691112504497 0.28999119697308512 0.70513907436509415 -0.64443592980424358 0.16985070438368097 0.11901715229390956 -0.95952925520524535 -1.0529276132191407 -0.55666387520000893 0.49330665838931814 0.98525240263597491 -1.1954700602059105 0.32377077618414912 0.093993865089043518 -1.1794529172727235
decision_type=2 2 2 2 2 2 2 2 2 2 2 2 2 2 2 2 2 2 2 2 2 2
left_child=3 2 5 18 10 11 -4 -3 19 -10 -5 12 -2 -6 -15 20 -13 -9 -1 -8 -16 -19
right_child=1 7 6 4 13 -7 8 17 9 -11 -12 16 -14 14 15 -17 -18 21 -20 -21 -22 -23
leaf_value=-0.012491734709108927 0.00067944076391665835 0.00097355779758140641 0.0011345817097039163 0.00057404438673144408 -0.0061000612870898202 -0.00047245405916449549 -0.00039724791811696672 0.0013589785265359256 0.00072177352975223577 -0.00058489639985078096 -0.00040752863058942453 0.0026743644587095003 -0.00054002915610888019 0.00010205378326647586 -0.0017117952962914088 -0.00082729996489676891 0.00099999198947748691 0.013607126387895874 -0.002363827546367481 -0.0014114944243133782 -0.0020688849345294829 0.010119837297699772
leaf_weight=97 39 38 21 30 45 21 20 29 32 26 28 48 22 21 20 27 28 20 22 26 23 82
leaf_count=97 39 38 21 30 45 21 20 29 32 26 28 48 22 21 20 27 28 20 22 26 23 82
internal_value=-0.000849673 0.0192478 0.00830389 -0.0298722 -0.0190722 0.0234177 -0.0108 0.037574 -0.0192308 -0.00344828 0.012069 0.030292 0.0155738 -0.0323529 -0.0236264 -0.0328571 0.0421053 0.0454198 -0.047479 -0.0391304 -0.0453488 0.0490196
internal_weight=765 452 283 313 194 158 125 169 104 58 58 137 61 136 91 70 76 131 119 46 43 102
internal_count=765 452 283 313 194 158 125 169 104 58 58 137 61 136 91 70 76 131 119 46 43 102
is_linear=0
shrinkage=0.05


Tree=37
num_leaves=27
num_cat=0
split_feature=13 27 13 12 27 12 27 12 12 27 0 13 28 14 14 3 22 28 7 7 23 14 13 27 27 6
split_gain=86.8044 34.3397 21.6119 11.8886 11.831 10.4256 10.0679 10.7127 7.49044 6.87994 6.55148 6.01094 7.79985 5.534 5.53279 4.54336 4.45529 4.39009 5.04949 4.63098 3.99284 3.93023 3.21754 2.70853 1.83807 0.503704
threshold=-0.40899249175880309 -0.23124414533572482 1.303343414345753 0.12752184844633066 -0.385971211012127 -1.287991302080538 -0.71886065686339473 0.78970225167412411 -0.25254186156585617 1.5280149908001837 0.58303587690066816 1.2165787758873126 0.73824455487498075 -0.15703574204007362 -1.4552051011317884 0.66295272833140928 0.41547439918435214 -1.0194424161713684 -0.89609486395524696 -0.055803943539051507 -1.0583409464796503 -1.1196096773438255 0.41112819117626126 -0.052191845467389773 -0.80395436616492144 -0.79219821782525657
decision_type=2 2 2 2 2 2 2 2 2 2 2 2 2 2 2 2 2 2 2 2 2 2 2 2 2 2
left_child=4 6 3 10 5 -1 13 11 -4 -5 22 12 15 -2 -7 16 -8 -16 -19 -20 -6 -22 -3 -23 25 -15
right_child=1 2 8 9 20 14 7 -9 -10 -11 -12 -13 -14 24 17 -17 -18 18 19 -21 21 23 -24 -25 -26 -27
leaf_value=0.00064861354723095503 0.00076083578822690049 -0.00050929989696138283 0.012885431164269961 -0.00049128941585314674 -0.011485915407576082 -0.010835220794245683 0.00065599413955002163 -0.00016568539045668518 0.00092487990770233482 -0.0017353558834105921 0.00011832761941360098 0.01238964891498508 -0.00015155160942464439 0.0022826911275800471 -0.0022254922918864997 0.0010443476249676891 -2.1400588372738617e-05 -0.00083739010808328302 0.00020969728676265288 -0.00029513731875413133 -0.0048645900983384149 -0.0019108060245641894 6.9651398519617054e-06 -0.0011623655888020003 0.0012170615069850067 0.0031280902185810387
leaf_weight=20 21 23 23 38 31 39 38 36 28 34 27 23 22 20 35 30 21 21 23 28 36 23 25 27 39 34
leaf_count=20 21 23 23 38 31 39 38 36 28 34 27 23 22 20 35 30 21 21 23 28 36 23 25 27 39 34
internal_value=-0.000457516 0.0124481 -0.00353535 -0.0132653 -0.0224382 -0.0138554 0.0235915 0.0158824 0.0245098 -0.0277778 0.000666667 0.0223881 0.0175676 0.0350877 -0.0184932 0.0241573 0.0161017 -0.0126168 -0.00555556 0.00294118 -0.0346154 -0.0290698 -0.0104167 -0.02 0.0403226 0.0462963
internal_weight=765 482 198 147 283 166 284 170 51 72 75 134 111 114 146 89 59 107 72 51 117 86 48 50 93 54
internal_count=765 482 198 147 283 166 284 170 51 72 75 134 111 114 146 89 59 107 72 51 117 86 48 50 93 54
is_linear=0
shrinkage=0.05


Tree=38
num_leaves=25
num_cat=0
split_feature=10 10 14 10 14 10 14 28 10 10 15 15 20 12 14 28 11 14 7 12 2 28 7 0
split_gain=160.899 37.9278 26.988 21.739 31.8497 19.2191 21.8391 15.0801 13.0709 12.7167 10.5445 7.19572 9.78829 6.25 12.4458 5.11461 5.07686 4.93282 4.92133 3.94696 1.20988 0.635052 0.509091 0.16
threshold=-0.28341864761729918 0.99422809342288143 0.39900813804006924 -1.1954700602059105 -1.3262621543785864 0.16985070438368097 0.7177954262408589 -0.29686264513712596 0.049699293938204138 -0.72538235747244351 -1.1930272899800447 1.005694920494286 -0.62182431959473761 0.38885571253516121 -0.26828215886069662 0.11508962654973727 1.1325864503446328 -0.93071750553852761 -0.36593580286121108 0.052859496103331197 -0.39608881706098703 -1.1508310034465927 -0.56816276002943378 -1.1583988386745636
decision_type=2 2 2 2 2 2 2 2 2 2 2 2 2 2 2 2 2 2 2 2 2 2 2 2
left_child=3 2 8 21 -5 -4 19 9 13 -6 -3 12 16 14 -2 22 -8 -9 -11 -7 -19 -1 -10 -12
right_child=1 10 5 4 7 6 11 17 15 18 23 -13 -14 -15 -16 -17 -18 20 -20 -21 -22 -23 -24 -25
leaf_value=-0.0078391163444482739 0.00061303804835927751 0.0023016178197347802 -0.0011666468923490769 0.00073504165035517821 -0.0020034824772143522 0.0014482092412635497 0.00010448443710810718 -0.0015846413212657563 0.0028524553018879763 -0.00049044122302215542 0.013641709518506441 0.00039341573587179935 -0.00045181994317758378 0.00020684011311748255 -0.00039701084548727909 0.0011884730697890146 -0.00040356168493469184 -0.0032002153234321562 0.00020760121280418711 0.00044966937863633597 -0.0036853267487048287 -0.013063685911552709 0.0026116704050480836 0.0092932703924313437
leaf_weight=20 27 28 31 29 31 23 23 32 20 20 20 20 23 24 21 31 22 32 23 24 49 77 35 80
leaf_count=20 27 28 31 29 31 23 23 32 20 20 20 20 23 24 21 31 22 32 23 24 49 77 35 80
internal_value=-0.000718954 0.0183628 0.00925926 -0.0282748 -0.0194444 -0.00481928 0.00333333 -0.0270053 0.0240506 -0.00945946 0.0414063 -0.0113636 -0.0191176 0.00833333 -0.00208333 0.0372093 -0.00555556 -0.0384956 0.00813953 0.0308511 -0.0450617 -0.0479381 0.0463636 0.049
internal_weight=765 452 324 313 216 166 135 187 158 74 128 88 68 72 48 86 45 113 43 47 81 97 55 100
internal_count=765 452 324 313 216 166 135 187 158 74 128 88 68 72 48 86 45 113 43 47 81 97 55 100
is_linear=0
shrinkage=0.05


Tree=39
num_leaves=24
num_cat=0
split_feature=10 10 27 27 10 14 10 14 10 14 15 10 11 22 10 14 10 10 27 10 17 0 5
split_gain=147.132 39.3983 40.3563 28.3277 37.0632 19.1413 20.2242 16.3093 11.5648 12.4615 10.5445 9.76364 15.4065 6.51905 4.74225 14.1404 4.58046 4.20269 1.64797 3.72671 0.824176 0.16 0.15122
threshold=-0.28341864761729918 0.99422809342288143 -0.50864057832197651 -0.63181324211656464 -1.3151677730768092 -0.92425702336606452 -0.7743655209252841 -0.30712711241734014 0.043198721559490394 0.67191512087760175 -1.1930272899800447 0.59580074993540277 1.0467079663608259 -0.43277952353131316 -0.65057037710679233 -0.39155846979425774 -0.17210746567041901 0.2549246607276226 -0.31000089435213402 -1.1954700602059105 0.48327181789596158 -1.1583988386745636 -0.53592882543725107
decision_type=2 2 2 2 2 2 2 2 2 2 2 2 2 2 2 2 2 2 2 2 2 2 2
left_child=3 2 8 4 -1 -6 -7 -4 16 20 -3 13 -13 -9 18 -16 -2 -15 19 -5 -10 -12 -20
right_child=1 10 7 14 5 6 -8 11 9 -11 21 12 -14 17 15 -17 -18 -19 22 -21 -22 -23 -24
leaf_value=-0.0098766549870071777 0.00045494490839158438 0.0021865369287480396 0.00064379594222215843 -0.0096402754589557608 0.00058257560886177957 -0.0019033083533536333 0.00018267805111397349 -5.6406998612702331e-05 0.0023128395653514225 0.00039438118816371716 0.01295962404258112 0.00081884100886888973 -0.00026534278386273965 -0.0011083145477316231 2.055629310412921e-06 -0.0027374755715587566 -7.5683949874176196e-05 -0.00027811597093024278 -0.0090536632148634447 -0.0015205768731662906 0.0025237438056241006 0.0088286068728097768 -0.0074707470278125411
leaf_weight=38 21 28 24 25 37 23 30 24 28 39 20 31 24 33 26 31 23 27 20 21 50 80 62
leaf_count=38 21 28 24 25 37 23 30 24 28 39 20 31 24 33 26 31 23 27 20 21 50 80 62
internal_value=-0.000326797 0.0179204 0.00864198 -0.0266773 -0.00859375 0.00888889 -0.0103774 -0.00889571 0.0263975 0.0346154 0.0414063 -0.0154676 0.000909091 -0.0261905 -0.0391892 -0.027193 0.00454545 -0.035 -0.0445313 -0.0369565 0.0461538 0.049 -0.0487805
internal_weight=765 452 324 313 128 90 53 163 161 117 128 139 55 84 185 57 44 60 128 46 78 100 82
internal_count=765 452 324 313 128 90 53 163 161 117 128 139 55 84 185 57 44 60 128 46 78 100 82
is_linear=0
shrinkage=0.05


Tree=40
num_leaves=27
num_cat=0
split_feature=10 27 10 27 10 13 10 27 10 11 7 11 12 10 13 2 13 10 11 22 12 19 24 0 2 0
split_gain=157.611 38.3599 46.9908 34.0871 35.5323 26.8989 29.9497 15.717 15.3409 23.0713 11.5203 9.3913 7.82587 10.3216 26.2362 7.37772 8.52694 7.53463 7.65022 4.26087 4.13482 3.80581 1.32785 0.357713 0.136508 0.102439
threshold=-0.11067107208898617 -0.30198246626573094 -1.3151677730768092 -0.52726254825730356 1.4321538139912733 -1.0625837725630329 -0.81646881759214351 1.0000000180025095e-35 0.8709840991535428 0.4468185091160144 -0.82913091707104136 -0.052307043238066016 -0.097793387494113287 0.81196702160481982 0.61374880601152537 -0.97682063863133861 0.38498414535759468 0.63563111071393485 1.1023042874164761 -0.18186518200414495 0.11516749203959796 0.5611754347329172 1.0958497918825094 0.60680463003292984 -0.57834402915905436 -0.0080194858730442842
decision_type=2 2 2 2 2 2 2 2 2 2 2 2 2 2 2 2 2 2 2 2 2 2 2 2 2 2
left_child=1 2 24 12 7 19 -7 8 9 21 -8 20 -2 14 -14 -9 -17 -18 -19 -4 -12 -5 23 -3 -1 -15
right_child=3 22 5 4 -6 6 10 15 -10 -11 11 -13 13 25 -16 16 17 18 -20 -21 -22 -23 -24 -25 -26 -27
leaf_value=-0.010349912079874872 0.0028480583562808556 -0.0051352057515888314 0.00091516592084320151 0.0011167781546642789 0.013292785171826506 -0.0019066010408125417 -0.00028183690133260896 -0.00060920296057729358 0.0049504301894820781 -0.00030664107497744013 9.5382439150359932e-05 -0.00025410534322096171 0.0024303139808541634 0.0097922686180117909 -0.00013761925893270854 0.000153056394269834 -0.00059683525376123293 0.00045217096101943526 -0.00076788651763173019 0.00040234034974012678 0.00042744202354104421 9.1252809640925185e-05 -0.0019897482656077953 -0.0045041574361795681 -0.0094733976702128641 0.006173848223724571
leaf_weight=20 80 70 23 21 44 34 24 20 24 23 21 23 26 21 27 21 24 20 22 23 25 20 28 31 43 20
leaf_count=20 80 70 23 21 44 34 24 20 24 23 21 23 26 21 27 21 24 20 22 23 25 20 28 31 43 20
internal_value=0.000514139 -0.0234247 -0.0114407 0.0216707 0.00941423 0.00202312 -0.00984252 0.00025641 0.0159091 0.003125 0.00483871 0.0152174 0.0385057 0.0287234 0.0141509 -0.0126168 -0.00632184 -0.0151515 -0.00238095 0.0347826 0.0282609 0.0256098 -0.0453488 -0.0480198 -0.0484127 0.047561
internal_weight=778 365 236 413 239 173 127 195 88 64 93 69 174 94 53 107 87 66 42 46 46 41 129 101 63 41
internal_count=778 365 236 413 239 173 127 195 88 64 93 69 174 94 53 107 87 66 42 46 46 41 129 101 63 41
is_linear=0
shrinkage=0.05


Tree=41
num_leaves=30
num_cat=0
split_feature=13 27 12 27 13 26 11 18 3 2 27 11 4 28 26 3 2 24 2 15 27 27 4 11 13 15 9 0 0
split_gain=70.3717 35.4976 25.0602 20.4945 11.7783 9.91141 9.33349 10.3232 9.42091 7.22965 6.33663 6.76433 5.19795 5.0274 4.74358 4.94916 4.18147 4.17898 4.17096 3.69652 3.61048 3.23206 7.12088 2.68145 2.15111 2.05867 1.20418 0.136508 0.1
threshold=1.0000000180025095e-35 -0.63918653561798477 -0.3129598598043295 -0.69612538202097685 -1.4206306635633335 1.1108252553298241 0.70336668430835203 0.6421305077904923 -0.8490735508484849 0.91706758950960787 -0.27155361834069575 -0.62008819071790577 0.17959852742573043 0.97833678244848088 0.4236666393723037 0.47374147211543344 -0.25114528800774327 -0.9408883799552864 -0.29624803355446899 0.39357804488616527 -0.53532444285829783 -0.065892948408750221 0.3475899358095203 0.23310399142574259 -0.38256819984819623 -1.1762412771906059 0.33438228814548604 -0.53151280705401305 -0.10015849790686268
decision_type=2 2 2 2 2 2 2 2 2 2 2 2 2 2 2 2 2 2 2 2 2 2 2 2 2 2 2 2 2
left_child=1 4 5 12 -1 23 7 16 -8 14 11 20 -4 19 15 18 -5 28 -6 26 -3 -19 -23 -2 -16 -25 -10 -27 -12
right_child=2 10 3 6 9 -7 8 -9 13 -11 17 -13 -14 -15 24 -17 -18 21 -20 -21 -22 22 -24 25 -26 27 -28 -29 -30
leaf_value=-0.0077012396750818562 0.00055331432338880451 -0.0027744522625146417 0.0032671825468308375 -0.00054912131199562895 0.00018331812765076119 0.0003387884327459012 -0.00038578961563566911 0.00020830453928484297 -0.00024432197560753864 -0.00049286596825743744 -0.0090453183231808208 4.3670618966944275e-05 0.0017139171749005868 0.0035101794707244173 0.00047853115604319933 0.00038222333225311771 -0.00042650758742523027 -0.0017663596136535552 -0.0008167486518697323 0.00074827769499253302 -0.0010101509403339897 -0.0032505820324008894 -0.00051005170015330423 0.0027209712940646394 0.00076354299464832874 0.0081490041720585268 0.00042042295957793186 0.0044740153907079196 -0.0083783735450689741
leaf_weight=31 24 28 38 25 21 24 26 22 20 21 20 28 31 25 25 21 31 39 20 20 31 39 24 20 20 20 21 43 20
leaf_count=31 24 28 38 25 21 24 26 22 20 21 20 28 31 25 25 21 31 39 20 20 31 39 24 20 20 20 21 43 20
internal_value=0.000385604 -0.0146907 0.0153846 0.00637066 0.00345912 0.0332061 -0.00210526 -0.0153846 0.00714286 0.0101563 -0.0272926 -0.0166667 0.0297101 0.0151163 0.0154206 0.00645161 -0.0267857 -0.0338028 -0.00365854 0.00737705 -0.0262712 -0.0284314 -0.0214286 0.0397196 0.0277778 0.0439759 -0.00121951 0.0484127 -0.0475
internal_weight=778 388 390 259 159 131 190 78 112 128 229 87 69 86 107 62 56 142 41 61 59 102 63 107 45 83 41 63 40
internal_count=778 388 390 259 159 131 190 78 112 128 229 87 69 86 107 62 56 142 41 61 59 102 63 107 45 83 41 63 40
is_linear=0
shrinkage=0.05


Tree=42
num_leaves=25
num_cat=0
split_feature=10 27 10 27 10 14 10 10 14 13 7 11 14 10 10 13 27 27 19 24 10 4 17 3
split_gain=152.794 33.8462 38.687 27.4594 40.8463 25.0234 27.1502 22.5419 39.8979 18.6026 11.7535 10.3578 8.34834 7.20238 6.37953 13.5999 4.75732 4.31002 4.19333 3.17837 6.70476 1.94216 0.482759 0.135484
threshold=-0.11067107208898617 1.0000000180025095e-35 1.4888999774768674 -0.30198246626573094 -1.3710401037115452 -1.0817115416563066 -0.81646881759214351 0.90568266321285018 0.5464865051694785 -0.13866576629202246 -0.82913091707104136 1.0969781364846654 1.0819059894146388 0.49155099467734303 0.63563111071393485 0.23355978338546474 -0.52726254825730356 -0.68968547472761743 0.57312927884878584 0.68526920769943844 -0.7743655209252841 0.36498030269532616 -1.7428319334821061 0.70873946161438883
decision_type=2 2 2 2 2 2 2 2 2 2 2 2 2 2 2 2 2 2 2 2 2 2 2 2
left_child=3 7 11 4 -1 17 -7 8 16 10 -8 14 13 -10 15 -3 23 -6 -18 22 -21 -12 -5 -2
right_child=1 2 -4 19 5 6 9 -9 12 -11 21 -13 -14 -15 -16 -17 18 -19 -20 20 -22 -23 -24 -25
leaf_value=-0.010706800735659381 0.002134963781526656 8.718430900349606e-05 0.0099085725235517133 -0.0071531015593673244 0.00079704652824383055 -0.0018487539761533501 -7.8452621637049684e-05 0.0089844526437710525 -0.00017790283087060975 -0.00044326545429106828 0.00021336956327438068 -0.00091477779751992789 -0.00050175865382332539 0.00051644523912340449 0.00045378512227624572 -0.00047576511407397272 0.0010587557159827178 0.00038648002766538959 7.5624484447927838e-05 -0.0028828868187768726 -0.00031348425095883498 0.00033705855238294337 -0.0046114149262194591 0.0020128347659766339
leaf_weight=58 42 24 31 24 22 36 20 99 28 31 20 35 21 20 27 23 23 26 20 22 20 23 63 20
leaf_count=58 42 24 31 24 22 36 20 99 28 31 20 35 21 20 27 23 23 26 20 22 20 23 63 20
internal_value=-0.000128535 0.0207022 0.000714286 -0.0236986 -0.0135593 -0.00168539 -0.0130769 0.0309524 0.0201149 0.00106383 0.0166667 -0.0133028 -0.00942029 0.00208333 -0.0027027 -0.0138298 0.0395238 0.0291667 0.0267442 -0.0422481 -0.0309524 0.0313953 -0.0477011 0.0483871
internal_weight=778 413 140 365 236 178 130 273 174 94 63 109 69 48 74 47 105 48 43 129 42 43 87 62
internal_count=778 413 140 365 236 178 130 273 174 94 63 109 69 48 74 47 105 48 43 129 42 43 87 62
is_linear=0
shrinkage=0.05


Tree=43
num_leaves=23
num_cat=0
split_feature=10 10 14 10 27 10 11 13 10 13 15 27 27 27 10 22 0 12 7 17 10 0
split_gain=134.244 39.5037 40.4913 26.0543 40.9777 16.8052 30.7154 16.6805 18.6364 13.4649 12.1073 10.5224 9.09091 8.48416 8.36934 7.33804 6.4254 5.86667 4.9 3.53455 5.09143 0.159596
threshold=-0.29414281283600202 1.0083056579160725 0.6290175370916905 -1.3710401037115452 -0.63918653561798477 0.1924486446290416 -0.027125695789613716 -0.91934035450682228 -0.61527213969356398 -1.1000685930334633 -1.1831974207318459 -0.68320210091966704 -0.13136724565064975 -0.53532444285829783 0.52119176081969654 -0.26452972487820808 0.53049861746705373 0.58256082629937167 -0.33176860050153989 0.47243259173900198 -0.74547283010643273 -1.1063156137845154
decision_type=2 2 2 2 2 2 2 2 2 2 2 2 2 2 2 2 2 2 2 2 2 2
left_child=3 2 5 -1 7 6 18 -5 -9 12 -3 -4 -6 -7 -15 -13 -17 -8 -2 -11 -21 -12
right_child=1 10 11 4 9 13 17 8 -10 19 21 15 -14 14 -16 16 -18 -19 -20 20 -22 -23
leaf_value=-0.011618405060524134 0.00010011234671615738 0.0020121158867934946 0.00060533642719083072 0.00054603606074379309 0.00027552695900342621 0.0023398004660149102 -0.00054579027511586465 -0.0010306670821326554 0.00016348374310450333 -0.0041697020529664593 0.011006485647265075 -0.00048284877765693014 -0.0024084474120910182 8.2547471220396221e-05 0.0013498007537293716 -0.00042315062533336144 3.3163260759662419e-05 -5.413448722302143e-05 0.00043388128215944707 -0.0021663708273046397 -0.0012233493773177132 0.0086900734275811142
leaf_weight=78 24 38 26 39 22 50 24 26 25 60 20 32 22 27 25 32 23 20 36 22 28 79
leaf_count=78 24 38 26 39 22 50 24 26 25 60 20 32 22 27 25 32 23 20 36 22 28 79
internal_value=-0.000128535 0.0173246 0.00768025 -0.0248447 -0.0168033 0.0208738 0.00673077 0.01 -0.00882353 -0.0324675 0.039781 -0.0163717 -0.00909091 0.0352941 0.0211538 -0.0247126 -0.0136364 -0.025 0.03 -0.0418182 -0.032 0.0489899
internal_weight=778 456 319 322 244 206 104 90 51 154 137 113 44 102 52 87 55 44 60 110 50 99
internal_count=778 456 319 322 244 206 104 90 51 154 137 113 44 102 52 87 55 44 60 110 50 99
is_linear=0
shrinkage=0.05


Tree=44
num_leaves=23
num_cat=0
split_feature=10 10 27 10 27 14 11 11 10 10 14 10 15 10 27 22 14 24 0 0 2 2
split_gain=125.888 34.0899 28.5718 26.6181 38.5085 21.2059 17.0499 16.4086 16.0629 13.5534 13.2849 12.8351 11.2787 10.8955 10.1605 8.83275 7.76308 7.34091 5.04689 0.148718 0.142857 0.140299
threshold=-0.29414281283600202 1.1509385514754678 -0.54811046128195173 -1.3710401037115452 -0.28401478176056388 -0.93071750553852761 0.42988470483601315 0.71803650921296625 -0.7743655209252841 0.52119176081969654 -0.10601505855174327 0.043198721559490394 -1.1831974207318459 0.83813671824612335 -0.73460011056794638 -0.034498679851713045 -0.30712711241734014 0.68526920769943844 0.48007257388443908 -0.65946636836507599 -0.3262151518653566 0.7386043729481806
decision_type=2 2 2 2 2 2 2 2 2 2 2 2 2 2 2 2 2 2 2 2 2 2
left_child=3 2 7 19 5 14 9 11 -7 10 -4 -2 -3 18 -5 -9 -10 21 -8 -1 -13 -6
right_child=1 12 6 4 17 8 13 15 16 -11 -12 20 -14 -15 -16 -17 -18 -19 -20 -21 -22 -23
leaf_value=-0.011294015516092571 2.880978446863289e-05 0.0029139125516764786 0.00014743175957177403 0.00063732213062983047 -0.0042185647304505526 -0.0015879529973436808 -0.00045707577337592568 -0.00026064757635104466 0.00028439493773772947 0.0022215770197998876 -0.00013488198055818386 0.0019464932826743055 0.010244331383417519 1.8095565434603224e-05 0.00022896985853808685 0.00090951383895993563 -0.00018582840048019802 -0.0013596844009485911 -0.00021564390876096796 -0.010822402867935435 0.0022228104427141657 -0.0039328996247276152
leaf_weight=20 37 36 34 23 47 31 39 20 25 22 39 20 86 31 38 21 27 33 21 58 50 20
leaf_count=20 37 36 34 23 47 31 39 20 25 22 39 20 86 31 38 21 27 33 21 58 50 20
internal_value=0.000642674 0.0175439 0.00928144 -0.0232919 -0.0151639 0.00138889 -0.00376344 0.0256757 -0.0150602 0.0110526 0.000684932 0.0359813 0.0401639 -0.0192308 0.0237705 -0.00121951 0.00192308 -0.039 -0.0316667 -0.0487179 0.0485714 -0.0485075
internal_weight=778 456 334 322 244 144 186 148 83 95 73 107 122 91 61 41 52 100 60 78 70 67
internal_count=778 456 334 322 244 144 186 148 83 95 73 107 122 91 61 41 52 100 60 78 70 67
is_linear=0
shrinkage=0.05


Tree=45
num_leaves=28
num_cat=0
split_feature=13 12 28 16 11 12 11 8 12 2 2 22 7 5 7 7 12 22 12 15 11 12 11 15 15 13 11
split_gain=40.8086 25.0869 24.4401 17.042 15.9868 15.6223 11.7493 12.4032 8.12236 7.79335 7.78533 6.47174 5.39071 7.68746 4.57223 4.48725 5.01389 4.33013 3.50546 3.47412 3.40975 3.22076 2.87817 1.89761 1.27201 1.06516 2.61905
threshold=-0.49704805581515682 -0.3129598598043295 -0.33610429064879932 -0.77268696941851778 0.3092408121018862 -0.008866733055763491 0.71803650921296625 -0.31013245478769808 -0.71636912030179212 0.33072542642002928 0.83803748457959915 -0.040738565812417908 0.28498454706939169 -0.17844661466968162 -0.231583813258431 0.71251241624613482 1.0036423691454603 -0.034498679851713045 0.77770189767171971 -1.1808473730859672 -0.97894928602085696 0.38885571253516121 -0.26850644873319635 -1.2014835133214394 0.61531615918006277 1.1270278186843659 0.68152508273551937
decision_type=2 2 2 2 2 2 2 2 2 2 2 2 2 2 2 2 2 2 2 2 2 2 2 2 2 2 2
left_child=3 4 15 23 8 9 10 -8 22 14 12 18 13 -4 -5 16 21 -9 -7 -6 -13 -3 -2 -1 -11 26 -21
right_child=1 2 6 5 19 11 7 17 -10 24 -12 20 -14 -15 -16 -17 -18 -19 -20 25 -22 -23 -24 -25 -26 -27 -28
leaf_value=-0.0042939529177566218 2.7774889938483873e-05 0.0011415520754823245 2.0993623794543506e-05 2.736929524520121e-05 0.0010965545748136353 0.00018000743390937936 -0.00037544846953717283 8.4101292134958202e-06 -0.00022013764854926962 -0.00095201931481784803 0.0001374812920272717 -0.0066885648641791477 -0.0010853830790023063 -0.00053503770932921411 0.00048456454192751522 1.7866449121757557e-05 0.00011798157009130645 0.0017652327101465748 -0.0015698794207413076 0.0018723000556697721 -0.00037899536650092827 0.0013458260920349103 0.0011611426222094933 -0.0069275261315894961 -0.0015041028228135107 0.011663586576373557 0.0021633352105385529
leaf_weight=23 23 37 27 27 20 33 36 25 22 21 21 37 31 32 34 39 24 34 23 22 21 35 22 33 20 34 20
leaf_count=23 23 37 27 27 20 33 36 25 22 21 21 37 31 32 34 39 24 34 23 22 21 35 22 33 20 34 20
internal_value=0.000902062 0.0093254 0.0016129 -0.0147059 0.0254601 -0.00833333 -0.0092233 0.00368421 0.00671642 0.00588235 -0.0202703 -0.0210526 -0.0266667 -0.0177966 0.0172131 0.0181481 0.0239583 0.0177966 -0.00892857 0.0385417 -0.0327586 0.0305556 0.0188889 -0.0392857 -0.0109756 0.0434211 0.0380952
internal_weight=776 504 341 272 163 216 206 95 67 102 111 114 90 59 61 135 96 59 56 96 58 72 45 56 41 76 42
internal_count=776 504 341 272 163 216 206 95 67 102 111 114 90 59 61 135 96 59 56 96 58 72 45 56 41 76 42
is_linear=0
shrinkage=0.05


Tree=46
num_leaves=25
num_cat=0
split_feature=10 10 14 10 13 19 10 13 10 18 10 13 28 12 10 14 10 12 10 11 16 10 7 2
split_gain=106.218 31.0057 38.6104 27.6571 37.4875 16.78 13.9492 13.7106 31.743 13.1368 11.8802 10.4143 7.32237 6.69856 6.57094 8.8738 6.17878 5.66874 4.75979 8.1 3.03061 3 2.38095 0.492308
threshold=0.14795069819689588 -1.1954700602059105 -0.79413088876227966 1.2564349641510175 0.65732550393011524 -0.76645850579664765 0.8239604886832379 -0.13866576629202246 -0.61527213969356398 -0.85750765549646035 -0.74547283010643273 -1.1000685930334633 -0.22351164691149708 0.43976358058098824 0.5114360498711491 0.22966866949344353 -0.31940592305822896 -0.20356210081223305 -1.4432677871082762 -1.2380491970598368 -1.1768723614568488 -0.79969090336362958 0.34420089134980097 0.4770472746700381
decision_type=2 2 2 2 2 2 2 2 2 2 2 2 2 2 2 2 2 2 2 2 2 2 2 2
left_child=1 18 5 4 14 -3 12 8 21 -8 11 -7 -6 -9 15 -2 -15 -10 -1 -20 -5 -4 -19 -16
right_child=3 2 7 20 6 10 9 13 17 -11 -12 -13 -14 16 23 -17 -18 22 19 -21 -22 -23 -24 -25
leaf_value=-0.010248545890050594 0.0016272125278326819 -0.0024592998542392777 -0.0030666459695402673 0.0074079265498487069 -7.1160383881174735e-05 0.00038091305097116834 -0.00032714388477885495 -0.00086130640922843201 -2.9671087428688808e-05 0.0015783745035684528 0.00097404914831600027 -0.00073714634796689937 -0.00046018819488940696 -0.0011486232958050292 0.0024622230382258499 5.7514142912434842e-05 -0.00013518026321167055 0.00040104809569392331 -0.00091688720720018997 -0.0035229617000531177 0.011019324313472998 -0.0011881963962083577 4.6195403732099409e-05 0.0020403233672096205
leaf_weight=57 36 23 30 32 25 36 27 42 27 38 39 20 38 21 32 29 36 21 20 20 66 20 21 20
leaf_count=57 36 23 30 32 25 36 27 42 27 38 39 20 38 21 32 29 36 21 20 20 66 20 21 20
internal_value=0.00064433 -0.0158199 -0.00863095 0.0214286 0.012449 0.0144068 -0.00625 -0.0211009 -0.00966387 0.01 0.0236842 0.00892857 -0.0230159 -0.0348485 0.032906 0.0223077 -0.0236842 0.0123188 -0.0407216 -0.0275 0.0438776 -0.04 0.0238095 0.0461538
internal_weight=776 433 336 343 245 118 128 218 119 65 95 56 63 99 117 65 57 69 97 40 98 50 42 52
internal_count=776 433 336 343 245 118 128 218 119 65 95 56 63 99 117 65 57 69 97 40 98 50 42 52
is_linear=0
shrinkage=0.05


Tree=47
num_leaves=27
num_cat=0
split_feature=10 10 14 27 10 27 10 14 27 13 27 10 14 13 10 11 12 15 10 11 10 10 27 10 14 11
split_gain=95.9287 32.6086 37.2389 28.0943 36.9777 20.9309 16.596 30.2286 14.3226 11.81 13.6927 10.2472 24.2241 8.50416 7.63328 9.38314 6.06061 5.42619 4.35842 3.27273 2.85007 4.38863 2.61696 1.18224 0.503704 0.498113
threshold=0.16985070438368097 -1.2189013967981566 -0.82070288850807049 -0.027852885007691352 1.5958415908044159 -0.12543978568720593 0.90568266321285018 1.0819059894146388 -0.81325848799870226 0.42549562362097909 -0.69612538202097685 -0.7743655209252841 -0.27448352601574977 0.63101958796874402 -0.81646881759214351 -1.2016953725881854 -0.20356210081223305 0.52743853882403025 -1.4432677871082762 0.18217109601348827 0.70049368927700761 1.0322416420779026 -0.63181324211656464 1.1360971414222247 0.19223123227921987 0.28354991434817961
decision_type=2 2 2 2 2 2 2 2 2 2 2 2 2 2 2 2 2 2 2 2 2 2 2 2 2 2
left_child=1 18 5 6 13 14 7 9 -4 24 -11 -10 16 -5 15 -3 -13 22 -1 -19 -15 -22 -14 -8 -2 -24
right_child=3 2 8 4 -6 -7 23 -9 11 10 -12 12 17 20 -16 -17 -18 19 -20 -21 21 -23 25 -25 -26 -27
leaf_value=-0.0097361185955480607 0.0019730621659725294 0.00043644998557968443 0.00016696299438716014 0.00012016746881003959 0.011691519603932877 -0.0012619052107902735 0.0021408116550124257 -0.00047667074800834542 -0.002913313671063253 0.0017013318530311309 -7.5010783952753071e-05 -2.8187533057254244e-05 -0.00012842125005108689 -0.00065517554399316088 0.00085031128480102811 -0.00022241939619667696 0.0003048932828754521 -5.1387614233034018e-05 -0.0019843846776705643 -0.00083206757129897094 -0.00012008005361145852 -0.00073240130506725676 -0.0021829745827837061 0.0090387673699795831 0.0018318559708022251 -0.0009898510736689283
leaf_weight=57 34 27 26 25 29 32 23 21 32 20 31 25 20 20 34 20 30 22 36 22 26 20 33 71 20 20
leaf_count=57 34 27 26 25 29 32 23 21 32 20 31 25 20 20 34 20 30 22 36 22 26 20 33 71 20 20
internal_value=0.000386598 -0.0151376 -0.00801749 0.0202941 0.000833333 0.0154867 0.0309091 0.0190476 -0.0195652 0.03 0.0127451 -0.0240196 -0.019186 -0.0148352 0.0290123 0.0159574 0.00818182 -0.0320513 -0.0413978 -0.0181818 -0.0242424 -0.0173913 -0.040411 0.0468085 0.0462963 -0.0462264
internal_weight=776 436 343 340 120 113 220 126 230 105 51 204 172 91 81 47 55 117 93 44 66 46 73 94 54 53
internal_count=776 436 343 340 120 113 220 126 230 105 51 204 172 91 81 47 55 117 93 44 66 46 73 94 54 53
is_linear=0
shrinkage=0.05


Tree=48
num_leaves=26
num_cat=0
split_feature=10 10 27 27 10 14 14 10 14 19 10 10 14 14 10 18 12 27 10 10 16 10 26 2 12
split_gain=89.6555 35.6935 32.9221 27.1588 27.3778 25.9098 19.5417 15.7563 26.8806 11.719 11.7057 11.5043 21.0475 10.0368 9.05884 10.1695 6.25804 6.17647 4.95429 4.9 4.70204 3.84891 3.27273 1.12075 0.921951
threshold=-0.33301199791509378 1.2564349641510175 -0.80395436616492144 -0.64131181941035809 -1.4432677871082762 -0.35675276703396924 -1.0657155376469365 0.49947493199590953 0.64737634895344975 -0.71765149574533604 -0.83975862642048382 -1.2189013967981566 -1.0399306945375117 0.38448476361329426 0.83813671824612335 -0.85750765549646035 0.12047306213642835 0.040465037372981093 -0.74547283010643273 -0.83301381755777248 -1.1715572691692491 0.2373533822911566 0.31235746291192973 -0.31454797105893678 -0.33515780535479989
decision_type=2 2 2 2 2 2 2 2 2 2 2 2 2 2 2 2 2 2 2 2 2 2 2 2 2
left_child=3 2 23 4 -1 -4 -6 9 24 22 -8 -5 19 16 -10 -16 -11 18 -14 -13 -3 -15 -7 -2 -9
right_child=1 20 5 11 6 7 10 8 14 13 -12 12 17 21 15 -17 -18 -19 -20 -21 -22 -23 -24 -25 -26
leaf_value=-0.0073721266440459152 0.0012606668825514067 0.0069528232453727806 0.00077625704966211354 -0.0094773100885171338 0.000472933925794794 -0.00091459283822311807 -0.0013794017167933605 0.0012805925534413246 -0.00041197874557877826 -6.6945552165144706e-05 6.1361740414066224e-05 -0.00036727287421735869 -0.0018395260589666119 -0.00082501774921839516 -0.000274166625286551 0.001116621498166931 7.163147652506224e-05 -0.0045893173419699453 -0.00032907186471103911 0.00044873488421533214 0.010157401033838798 -7.8215068776580496e-05 -0.00056154663163010749 0.0019802370519008241 0.0029755257282807314
leaf_weight=22 20 35 36 56 35 22 21 20 34 28 34 20 25 23 27 32 26 42 35 20 63 24 22 33 21
leaf_count=22 20 35 36 56 35 22 21 20 34 28 34 20 25 23 27 32 26 42 35 20 63 24 22 33 21
internal_value=0.00115979 0.0150215 0.00788043 -0.0196774 0 0.00174603 0.0122222 -0.00340502 0.00895522 -0.0148276 -0.00636364 -0.0308081 -0.0232394 -0.00544554 -0.00591398 0.0059322 0.00925926 -0.0352941 -0.025 0.0075 0.0418367 -0.0223404 -0.0363636 0.0443396 0.0426829
internal_weight=776 466 368 310 112 315 90 279 134 145 55 198 142 101 93 59 54 102 60 40 98 47 44 53 41
internal_count=776 466 368 310 112 315 90 279 134 145 55 198 142 101 93 59 54 102 60 40 98 47 44 53 41
is_linear=0
shrinkage=0.05


Tree=49
num_leaves=29
num_cat=0
split_feature=10 10 14 27 10 10 14 27 10 14 27 14 12 14 12 2 11 27 27 7 10 26 27 14 7 1 1 1
split_gain=80.4896 34.9269 33.7026 28.8018 32.2958 27.1819 21.4709 18.8005 15.1715 24.1635 11.5746 8.80016 10.0087 8.4965 6.80654 6.57729 9.22796 6.06897 5.71667 5.50556 4.35842 3.47143 2.91255 2.87619 2.67442 0.135484 0.111111 0.1
threshold=0.16985070438368097 -1.2189013967981566 -0.12317641116781264 -0.69612538202097685 1.563203670987577 -0.65057037710679233 -1.0817115416563066 -0.027852885007691352 1.0322416420779026 0.42832425947626213 -0.43600803244031799 -0.79413088876227966 -0.20356210081223305 0.90251633684506294 0.43976358058098824 -0.65318093765946783 1.1023042874164761 -0.59441145016660601 -0.68968547472761743 0.029513928621456003 -1.4432677871082762 -0.34273139426292804 -0.61509464797806701 1.0819059894146388 -0.17639637940452696 -0.58148120994636843 -0.49710710014366272 -0.34940763578709244
decision_type=2 2 2 2 2 2 2 2 2 2 2 2 2 2 2 2 2 2 2 2 2 2 2 2 2 2 2 2
left_child=1 20 5 23 7 6 10 8 9 -5 -3 24 -13 -11 27 -9 19 -16 -8 -17 -1 -20 -14 25 -7 -2 -6 -4
right_child=3 2 14 4 26 11 18 15 -10 13 -12 12 22 -15 17 16 -18 -19 21 -21 -22 -23 -24 -25 -26 -27 -28 -29
leaf_value=-0.0087754471613448026 0.0022672368821840135 0.00039308266336824939 -0.00073159766712516258 0.0010731300908152137 0.013883889548388715 0.00047555077889882975 -0.00013621249003160503 -0.00043943736374382482 0.0033678758952873228 1.4850616212792878e-05 -0.00062312461403656039 -7.5681262361939136e-05 0.00037293211688621335 -0.0004914532108942466 -2.1421670615661554e-05 0.00044955090878928406 -0.00090642288401540096 -0.0010789810126245513 -0.0017475497560182824 -0.00010140476651598063 -0.0017082191798745484 -0.0027807262385981303 0.00010421197710951542 0.0066088664010814429 0.00097417224002240292 0.0022085177704741082 0.011566490122373702 -0.00074921330527310246
leaf_weight=57 20 27 20 29 20 20 24 21 32 30 20 33 20 22 22 20 27 36 21 23 36 35 22 29 23 42 25 20
leaf_count=57 20 27 20 29 20 20 24 21 32 30 20 33 20 22 22 20 27 36 21 23 36 35 22 29 23 42 25 20
internal_value=0 -0.0142202 -0.00685131 0.0182353 0.00943775 0.00306122 -0.0129921 0.000980392 0.0146018 0.00308642 0.0138298 0.020339 0.01 -0.0173077 -0.0316327 -0.0159341 -0.00857143 -0.0206897 -0.02875 0.00581395 -0.0413978 -0.0375 0.0261905 0.0423077 0.0383721 0.0483871 0.0477778 -0.0475
internal_weight=776 436 343 340 249 245 127 204 113 81 47 118 75 52 98 91 70 58 80 43 93 56 42 91 43 62 45 40
internal_count=776 436 343 340 249 245 127 204 113 81 47 118 75 52 98 91 70 58 80 43 93 56 42 91 43 62 45 40
is_linear=0
shrinkage=0.05


Tree=50
num_leaves=27
num_cat=0
split_feature=13 15 11 12 11 23 8 4 12 3 2 8 17 12 13 7 25 5 4 12 12 12 2 26 8 11
split_gain=32.9918 21.1871 12.2604 12.2532 14.2305 10.0756 14.8552 10.0033 7.37719 7.18368 6.77182 8.25016 7.24706 6.48148 6.39937 6.00076 7.12869 7.62222 5.5068 5.30526 4.54474 5.02291 4.49616 3.73333 1.46667 1.17931
threshold=-0.51958253196963333 -1.154487140129741 0.21963698857097705 -0.43793789282376233 0.34888125817754095 -0.8500946110864287 -0.17004077571594897 0.31628227561762851 -1.2310557168969232 -0.018880178826309452 0.90627399129268704 -0.91308101470527558 0.36473253423766311 -0.14177483675584035 1.6728126876597895 -0.68358358280357645 -0.89667095188728285 -0.14929097982513403 -0.94514295905199364 0.47471454462346946 1.0036423691454603 0.45919441229981212 0.28384963176572786 0.51883686016947428 0.62875432231491446 0.87288402152506961
decision_type=2 2 2 2 2 2 2 2 2 2 2 2 2 2 2 2 2 2 2 2 2 2 2 2 2 2
left_child=7 2 -2 4 8 9 18 10 -3 -5 11 -1 -13 -14 19 -9 -17 -18 -7 23 21 -20 24 -4 -8 -6
right_child=1 3 14 5 25 6 22 15 -10 -11 -12 12 13 -15 -16 16 17 -19 20 -21 -22 -23 -24 -25 -26 -27
leaf_value=7.6736847578223744e-05 -0.0016180609544235863 0.00078840431590699038 0.0001929781540238436 0.0023170445012574191 0.0015829917097961181 0.00046753594353943776 -0.00038278232172920813 -0.0010649005835733445 -4.604105117176141e-05 0.00033906003733879012 -0.0024298787442157358 -0.0073350632477341086 7.7592454770625263e-05 -0.0016231512183550374 0.0075101116605187732 0.0003820404149252832 0.00014197388227056573 -0.0016095337614761146 4.1345859510107108e-05 -0.00031991867471981017 -8.9410089435493231e-05 0.00031421917602425834 -4.2841288597203486e-05 -0.00050830792225934555 -0.00036259143067161122 0.0089026051894444663
leaf_weight=31 31 25 35 25 20 22 20 32 32 36 31 22 27 36 22 25 35 28 38 20 21 30 37 21 24 38
leaf_count=31 31 25 35 25 20 22 20 32 32 36 31 22 27 36 22 25 35 28 38 20 21 30 37 21 24 38
internal_value=0.00013089 0.00774648 -0.00968992 0.0138587 0.0273913 0.00770751 0.00208333 -0.0140449 0.00964912 0.0254098 -0.0227891 -0.0172414 -0.0252941 -0.0166667 -0.00102041 -0.00333333 0.00340909 -0.00555556 0.013964 -0.00789474 0.00842697 0.0147059 -0.0141975 0 -0.025 0.0448276
internal_weight=764 497 129 368 115 253 192 267 57 61 147 116 85 63 98 120 88 63 111 76 89 68 81 56 44 58
internal_count=764 497 129 368 115 253 192 267 57 61 147 116 85 63 98 120 88 63 111 76 89 68 81 56 44 58
is_linear=0
shrinkage=0.05


Tree=51
num_leaves=27
num_cat=0
split_feature=10 10 27 11 10 13 10 13 10 27 27 27 11 2 11 10 2 14 14 28 2 28 23 23 0 2
split_gain=91.5489 44.8119 34.0243 21.2439 17.5129 28.9004 14.0501 28.7286 13.1625 10.3143 9.61 8.54118 6.4 6.12812 6.08027 9.11249 8.1 5.62564 4.71694 4.6166 3.6 3.3 3.01385 2.36364 2.25882 0.15
threshold=-0.74547283010643273 1.2251233616644961 -0.027852885007691352 0.71803650921296625 -1.4781471023403434 -1.3423352862002003 0.085489239239745204 -0.31039743267676151 0.8923200161099033 -0.67286622129217222 1.6579409783354457 -0.54811046128195173 -0.91014272942325403 0.023800272327239188 -0.50410462471133033 0.63563111071393485 0.13462878351501126 -0.79413088876227966 1.0819059894146388 0.83141440834748936 0.44210397109007843 -0.36969887711439581 0.67896911814638305 0.61731241941772119 -0.8271998930735216 0.59798345996742064
decision_type=2 2 2 2 2 2 2 2 2 2 2 2 2 2 2 2 2 2 2 2 2 2 2 2 2 2
left_child=4 2 3 6 -1 -6 7 17 18 12 25 24 -7 21 -4 19 -17 -2 -5 -16 -13 -9 -19 -11 -8 -3
right_child=1 10 14 8 5 9 11 13 -10 23 -12 20 -14 -15 15 16 -18 22 -20 -21 -22 -23 -24 -25 -26 -27
leaf_value=-0.008603131331372374 0.00061025058907041995 0.0088649048103420953 0.00017533805045648888 -0.00020761160702448755 0.00036954890746130622 8.9420866637644766e-05 0.0019770147508821265 -0.00019912913529125006 0.0011338052433607028 -0.0057428223545377133 0.001020007837387671 0.001313516877073142 -0.0013591016145529822 2.9400643389305808e-05 -0.00098461731923350348 0.00015593027283008836 -0.0003182998603424303 0.00031299272137788364 -0.00053427859490174788 -0.00034607406618196554 3.6049309312269354e-05 -0.00011515556317369114 9.115446494167403e-05 -0.0011964940177315226 0.0015965026670748284 0.0093610601509292908
leaf_weight=64 32 60 23 27 31 20 20 20 23 39 20 20 20 25 37 20 20 22 20 36 20 24 20 33 48 20
leaf_count=64 32 60 23 27 31 20 20 20 23 39 20 20 20 25 37 20 20 22 20 36 20 24 20 33 48 20
internal_value=0.00013089 0.0106822 0.00404814 0.0129283 -0.0282609 -0.0185315 0.0197211 0.00944056 -0.0114286 -0.0303571 0.041 0.0333333 -0.01 -0.0137681 -0.0169118 -0.0216814 -0.0025 0.0310811 -0.0265957 -0.0321918 0.015 -0.025 0.0190476 -0.0416667 0.0441176 0.04875
internal_weight=764 557 457 321 207 143 251 143 70 112 100 108 40 69 136 113 40 74 47 73 40 44 42 72 68 80
internal_count=764 557 457 321 207 143 251 143 70 112 100 108 40 69 136 113 40 74 47 73 40 44 42 72 68 80
is_linear=0
shrinkage=0.05


Tree=52
num_leaves=27
num_cat=0
split_feature=10 10 13 27 17 10 13 10 27 13 10 11 27 19 13 10 27 0 16 27 13 9 10 26 0 0
split_gain=92.0863 42.5571 34.6143 35.7455 16.8421 15.5392 27.6846 15.1513 14.2881 10.182 15.2683 7.4508 10.3338 5.63316 5.34461 10.4387 5.01879 5.12121 3.92727 3.66768 3.48444 3.36289 2.85451 6.51636 0.459574 0.141176
threshold=-0.81646881759214351 0.90568266321285018 0.42549562362097909 -0.11410417622411677 -1.4490920871759416 -1.4432677871082762 -1.3423352862002003 -0.29414281283600202 -0.80061201996399844 -0.8022288756381063 0.062339745080191661 -0.82746719631565457 -0.65942134201576952 -1.184458180684582 1.0729439100898797 0.2373533822911566 -0.75154290041328198 -0.69450001404865258 0.63588397600172397 -0.6034433343563691 -0.40899249175880309 -0.16640686391296763 1.3141435164311714 0.16758011327424868 0.42837263653807173 -0.58437514447444083
decision_type=2 2 2 2 2 2 2 2 2 2 2 2 2 2 2 2 2 2 2 2 2 2 2 2 2 2
left_child=5 2 3 9 -3 25 -7 20 -4 -2 16 12 -8 -9 15 -10 -11 -18 -19 -12 -5 -17 23 -6 -13 -1
right_child=1 4 8 7 22 6 11 13 14 10 19 24 -14 -15 -16 21 17 18 -20 -21 -22 -23 -24 -25 -26 -27
leaf_value=-0.0071352027020388509 0.00064000389382738308 4.7981145918044033e-05 0.00043135443671411187 -0.0022119788330385304 0.0027265586403293685 0.00034776620544709619 0.00011765716056801323 0.00042196288270058419 -0.00084788648757885105 0.00020458833792216525 0.001815060795823116 -0.0027051787848668268 -0.0012039624165180451 -0.00011561544538262748 -0.00053377431518487342 5.6226819142651821e-05 3.9969665768831934e-05 -0.00012362663989123681 7.4510957878042025e-05 0.00069017206453778903 -0.0031464885722652259 -0.00019842338850901143 0.0093310765971701907 0.0011766372132139408 -0.0021052118241903519 -0.0078681255141873803
leaf_weight=20 32 37 22 25 28 28 20 23 25 27 38 27 34 21 31 27 22 24 20 31 20 29 63 22 20 48
leaf_count=20 32 37 22 25 28 28 20 23 25 27 38 27 34 21 31 27 22 24 20 31 20 29 63 22 20 48
